tree
version=v4
num_class=1
num_tree_per_iteration=1
label_index=0
max_feature_idx=1328
objective=regression
feature_names=Column_0 Column_1 Column_2 Column_3 Column_4 Column_5 Column_6 Column_7 Column_8 Column_9 Column_10 Column_11 Column_12 Column_13 Column_14 Column_15 Column_16 Column_17 Column_18 Column_19 Column_20 Column_21 Column_22 Column_23 Column_24 Column_25 Column_26 Column_27 Column_28 Column_29 Column_30 Column_31 Column_32 Column_33 Column_34 Column_35 Column_36 Column_37 Column_38 Column_39 Column_40 Column_41 Column_42 Column_43 Column_44 Column_45 Column_46 Column_47 Column_48 Column_49 Column_50 Column_51 Column_52 Column_53 Column_54 Column_55 Column_56 Column_57 Column_58 Column_59 Column_60 Column_61 Column_62 Column_63 Column_64 Column_65 Column_66 Column_67 Column_68 Column_69 Column_70 Column_71 Column_72 Column_73 Column_74 Column_75 Column_76 Column_77 Column_78 Column_79 Column_80 Column_81 Column_82 Column_83 Column_84 Column_85 Column_86 Column_87 Column_88 Column_89 Column_90 Column_91 Column_92 Column_93 Column_94 Column_95 Column_96 Column_97 Column_98 Column_99 Column_100 Column_101 Column_102 Column_103 Column_104 Column_105 Column_106 Column_107 Column_108 Column_109 Column_110 Column_111 Column_112 Column_113 Column_114 Column_115 Column_116 Column_117 Column_118 Column_119 Column_120 Column_121 Column_122 Column_123 Column_124 Column_125 Column_126 Column_127 Column_128 Column_129 Column_130 Column_131 Column_132 Column_133 Column_134 Column_135 Column_136 Column_137 Column_138 Column_139 Column_140 Column_141 Column_142 Column_143 Column_144 Column_145 Column_146 Column_147 Column_148 Column_149 Column_150 Column_151 Column_152 Column_153 Column_154 Column_155 Column_156 Column_157 Column_158 Column_159 Column_160 Column_161 Column_162 Column_163 Column_164 Column_165 Column_166 Column_167 Column_168 Column_169 Column_170 Column_171 Column_172 Column_173 Column_174 Column_175 Column_176 Column_177 Column_178 Column_179 Column_180 Column_181 Column_182 Column_183 Column_184 Column_185 Column_186 Column_187 Column_188 Column_189 Column_190 Column_191 Column_192 Column_193 Column_194 Column_195 Column_196 Column_197 Column_198 Column_199 Column_200 Column_201 Column_202 Column_203 Column_204 Column_205 Column_206 Column_207 Column_208 Column_209 Column_210 Column_211 Column_212 Column_213 Column_214 Column_215 Column_216 Column_217 Column_218 Column_219 Column_220 Column_221 Column_222 Column_223 Column_224 Column_225 Column_226 Column_227 Column_228 Column_229 Column_230 Column_231 Column_232 Column_233 Column_234 Column_235 Column_236 Column_237 Column_238 Column_239 Column_240 Column_241 Column_242 Column_243 Column_244 Column_245 Column_246 Column_247 Column_248 Column_249 Column_250 Column_251 Column_252 Column_253 Column_254 Column_255 Column_256 Column_257 Column_258 Column_259 Column_260 Column_261 Column_262 Column_263 Column_264 Column_265 Column_266 Column_267 Column_268 Column_269 Column_270 Column_271 Column_272 Column_273 Column_274 Column_275 Column_276 Column_277 Column_278 Column_279 Column_280 Column_281 Column_282 Column_283 Column_284 Column_285 Column_286 Column_287 Column_288 Column_289 Column_290 Column_291 Column_292 Column_293 Column_294 Column_295 Column_296 Column_297 Column_298 Column_299 Column_300 Column_301 Column_302 Column_303 Column_304 Column_305 Column_306 Column_307 Column_308 Column_309 Column_310 Column_311 Column_312 Column_313 Column_314 Column_315 Column_316 Column_317 Column_318 Column_319 Column_320 Column_321 Column_322 Column_323 Column_324 Column_325 Column_326 Column_327 Column_328 Column_329 Column_330 Column_331 Column_332 Column_333 Column_334 Column_335 Column_336 Column_337 Column_338 Column_339 Column_340 Column_341 Column_342 Column_343 Column_344 Column_345 Column_346 Column_347 Column_348 Column_349 Column_350 Column_351 Column_352 Column_353 Column_354 Column_355 Column_356 Column_357 Column_358 Column_359 Column_360 Column_361 Column_362 Column_363 Column_364 Column_365 Column_366 Column_367 Column_368 Column_369 Column_370 Column_371 Column_372 Column_373 Column_374 Column_375 Column_376 Column_377 Column_378 Column_379 Column_380 Column_381 Column_382 Column_383 Column_384 Column_385 Column_386 Column_387 Column_388 Column_389 Column_390 Column_391 Column_392 Column_393 Column_394 Column_395 Column_396 Column_397 Column_398 Column_399 Column_400 Column_401 Column_402 Column_403 Column_404 Column_405 Column_406 Column_407 Column_408 Column_409 Column_410 Column_411 Column_412 Column_413 Column_414 Column_415 Column_416 Column_417 Column_418 Column_419 Column_420 Column_421 Column_422 Column_423 Column_424 Column_425 Column_426 Column_427 Column_428 Column_429 Column_430 Column_431 Column_432 Column_433 Column_434 Column_435 Column_436 Column_437 Column_438 Column_439 Column_440 Column_441 Column_442 Column_443 Column_444 Column_445 Column_446 Column_447 Column_448 Column_449 Column_450 Column_451 Column_452 Column_453 Column_454 Column_455 Column_456 Column_457 Column_458 Column_459 Column_460 Column_461 Column_462 Column_463 Column_464 Column_465 Column_466 Column_467 Column_468 Column_469 Column_470 Column_471 Column_472 Column_473 Column_474 Column_475 Column_476 Column_477 Column_478 Column_479 Column_480 Column_481 Column_482 Column_483 Column_484 Column_485 Column_486 Column_487 Column_488 Column_489 Column_490 Column_491 Column_492 Column_493 Column_494 Column_495 Column_496 Column_497 Column_498 Column_499 Column_500 Column_501 Column_502 Column_503 Column_504 Column_505 Column_506 Column_507 Column_508 Column_509 Column_510 Column_511 Column_512 Column_513 Column_514 Column_515 Column_516 Column_517 Column_518 Column_519 Column_520 Column_521 Column_522 Column_523 Column_524 Column_525 Column_526 Column_527 Column_528 Column_529 Column_530 Column_531 Column_532 Column_533 Column_534 Column_535 Column_536 Column_537 Column_538 Column_539 Column_540 Column_541 Column_542 Column_543 Column_544 Column_545 Column_546 Column_547 Column_548 Column_549 Column_550 Column_551 Column_552 Column_553 Column_554 Column_555 Column_556 Column_557 Column_558 Column_559 Column_560 Column_561 Column_562 Column_563 Column_564 Column_565 Column_566 Column_567 Column_568 Column_569 Column_570 Column_571 Column_572 Column_573 Column_574 Column_575 Column_576 Column_577 Column_578 Column_579 Column_580 Column_581 Column_582 Column_583 Column_584 Column_585 Column_586 Column_587 Column_588 Column_589 Column_590 Column_591 Column_592 Column_593 Column_594 Column_595 Column_596 Column_597 Column_598 Column_599 Column_600 Column_601 Column_602 Column_603 Column_604 Column_605 Column_606 Column_607 Column_608 Column_609 Column_610 Column_611 Column_612 Column_613 Column_614 Column_615 Column_616 Column_617 Column_618 Column_619 Column_620 Column_621 Column_622 Column_623 Column_624 Column_625 Column_626 Column_627 Column_628 Column_629 Column_630 Column_631 Column_632 Column_633 Column_634 Column_635 Column_636 Column_637 Column_638 Column_639 Column_640 Column_641 Column_642 Column_643 Column_644 Column_645 Column_646 Column_647 Column_648 Column_649 Column_650 Column_651 Column_652 Column_653 Column_654 Column_655 Column_656 Column_657 Column_658 Column_659 Column_660 Column_661 Column_662 Column_663 Column_664 Column_665 Column_666 Column_667 Column_668 Column_669 Column_670 Column_671 Column_672 Column_673 Column_674 Column_675 Column_676 Column_677 Column_678 Column_679 Column_680 Column_681 Column_682 Column_683 Column_684 Column_685 Column_686 Column_687 Column_688 Column_689 Column_690 Column_691 Column_692 Column_693 Column_694 Column_695 Column_696 Column_697 Column_698 Column_699 Column_700 Column_701 Column_702 Column_703 Column_704 Column_705 Column_706 Column_707 Column_708 Column_709 Column_710 Column_711 Column_712 Column_713 Column_714 Column_715 Column_716 Column_717 Column_718 Column_719 Column_720 Column_721 Column_722 Column_723 Column_724 Column_725 Column_726 Column_727 Column_728 Column_729 Column_730 Column_731 Column_732 Column_733 Column_734 Column_735 Column_736 Column_737 Column_738 Column_739 Column_740 Column_741 Column_742 Column_743 Column_744 Column_745 Column_746 Column_747 Column_748 Column_749 Column_750 Column_751 Column_752 Column_753 Column_754 Column_755 Column_756 Column_757 Column_758 Column_759 Column_760 Column_761 Column_762 Column_763 Column_764 Column_765 Column_766 Column_767 Column_768 Column_769 Column_770 Column_771 Column_772 Column_773 Column_774 Column_775 Column_776 Column_777 Column_778 Column_779 Column_780 Column_781 Column_782 Column_783 Column_784 Column_785 Column_786 Column_787 Column_788 Column_789 Column_790 Column_791 Column_792 Column_793 Column_794 Column_795 Column_796 Column_797 Column_798 Column_799 Column_800 Column_801 Column_802 Column_803 Column_804 Column_805 Column_806 Column_807 Column_808 Column_809 Column_810 Column_811 Column_812 Column_813 Column_814 Column_815 Column_816 Column_817 Column_818 Column_819 Column_820 Column_821 Column_822 Column_823 Column_824 Column_825 Column_826 Column_827 Column_828 Column_829 Column_830 Column_831 Column_832 Column_833 Column_834 Column_835 Column_836 Column_837 Column_838 Column_839 Column_840 Column_841 Column_842 Column_843 Column_844 Column_845 Column_846 Column_847 Column_848 Column_849 Column_850 Column_851 Column_852 Column_853 Column_854 Column_855 Column_856 Column_857 Column_858 Column_859 Column_860 Column_861 Column_862 Column_863 Column_864 Column_865 Column_866 Column_867 Column_868 Column_869 Column_870 Column_871 Column_872 Column_873 Column_874 Column_875 Column_876 Column_877 Column_878 Column_879 Column_880 Column_881 Column_882 Column_883 Column_884 Column_885 Column_886 Column_887 Column_888 Column_889 Column_890 Column_891 Column_892 Column_893 Column_894 Column_895 Column_896 Column_897 Column_898 Column_899 Column_900 Column_901 Column_902 Column_903 Column_904 Column_905 Column_906 Column_907 Column_908 Column_909 Column_910 Column_911 Column_912 Column_913 Column_914 Column_915 Column_916 Column_917 Column_918 Column_919 Column_920 Column_921 Column_922 Column_923 Column_924 Column_925 Column_926 Column_927 Column_928 Column_929 Column_930 Column_931 Column_932 Column_933 Column_934 Column_935 Column_936 Column_937 Column_938 Column_939 Column_940 Column_941 Column_942 Column_943 Column_944 Column_945 Column_946 Column_947 Column_948 Column_949 Column_950 Column_951 Column_952 Column_953 Column_954 Column_955 Column_956 Column_957 Column_958 Column_959 Column_960 Column_961 Column_962 Column_963 Column_964 Column_965 Column_966 Column_967 Column_968 Column_969 Column_970 Column_971 Column_972 Column_973 Column_974 Column_975 Column_976 Column_977 Column_978 Column_979 Column_980 Column_981 Column_982 Column_983 Column_984 Column_985 Column_986 Column_987 Column_988 Column_989 Column_990 Column_991 Column_992 Column_993 Column_994 Column_995 Column_996 Column_997 Column_998 Column_999 Column_1000 Column_1001 Column_1002 Column_1003 Column_1004 Column_1005 Column_1006 Column_1007 Column_1008 Column_1009 Column_1010 Column_1011 Column_1012 Column_1013 Column_1014 Column_1015 Column_1016 Column_1017 Column_1018 Column_1019 Column_1020 Column_1021 Column_1022 Column_1023 Column_1024 Column_1025 Column_1026 Column_1027 Column_1028 Column_1029 Column_1030 Column_1031 Column_1032 Column_1033 Column_1034 Column_1035 Column_1036 Column_1037 Column_1038 Column_1039 Column_1040 Column_1041 Column_1042 Column_1043 Column_1044 Column_1045 Column_1046 Column_1047 Column_1048 Column_1049 Column_1050 Column_1051 Column_1052 Column_1053 Column_1054 Column_1055 Column_1056 Column_1057 Column_1058 Column_1059 Column_1060 Column_1061 Column_1062 Column_1063 Column_1064 Column_1065 Column_1066 Column_1067 Column_1068 Column_1069 Column_1070 Column_1071 Column_1072 Column_1073 Column_1074 Column_1075 Column_1076 Column_1077 Column_1078 Column_1079 Column_1080 Column_1081 Column_1082 Column_1083 Column_1084 Column_1085 Column_1086 Column_1087 Column_1088 Column_1089 Column_1090 Column_1091 Column_1092 Column_1093 Column_1094 Column_1095 Column_1096 Column_1097 Column_1098 Column_1099 Column_1100 Column_1101 Column_1102 Column_1103 Column_1104 Column_1105 Column_1106 Column_1107 Column_1108 Column_1109 Column_1110 Column_1111 Column_1112 Column_1113 Column_1114 Column_1115 Column_1116 Column_1117 Column_1118 Column_1119 Column_1120 Column_1121 Column_1122 Column_1123 Column_1124 Column_1125 Column_1126 Column_1127 Column_1128 Column_1129 Column_1130 Column_1131 Column_1132 Column_1133 Column_1134 Column_1135 Column_1136 Column_1137 Column_1138 Column_1139 Column_1140 Column_1141 Column_1142 Column_1143 Column_1144 Column_1145 Column_1146 Column_1147 Column_1148 Column_1149 Column_1150 Column_1151 Column_1152 Column_1153 Column_1154 Column_1155 Column_1156 Column_1157 Column_1158 Column_1159 Column_1160 Column_1161 Column_1162 Column_1163 Column_1164 Column_1165 Column_1166 Column_1167 Column_1168 Column_1169 Column_1170 Column_1171 Column_1172 Column_1173 Column_1174 Column_1175 Column_1176 Column_1177 Column_1178 Column_1179 Column_1180 Column_1181 Column_1182 Column_1183 Column_1184 Column_1185 Column_1186 Column_1187 Column_1188 Column_1189 Column_1190 Column_1191 Column_1192 Column_1193 Column_1194 Column_1195 Column_1196 Column_1197 Column_1198 Column_1199 Column_1200 Column_1201 Column_1202 Column_1203 Column_1204 Column_1205 Column_1206 Column_1207 Column_1208 Column_1209 Column_1210 Column_1211 Column_1212 Column_1213 Column_1214 Column_1215 Column_1216 Column_1217 Column_1218 Column_1219 Column_1220 Column_1221 Column_1222 Column_1223 Column_1224 Column_1225 Column_1226 Column_1227 Column_1228 Column_1229 Column_1230 Column_1231 Column_1232 Column_1233 Column_1234 Column_1235 Column_1236 Column_1237 Column_1238 Column_1239 Column_1240 Column_1241 Column_1242 Column_1243 Column_1244 Column_1245 Column_1246 Column_1247 Column_1248 Column_1249 Column_1250 Column_1251 Column_1252 Column_1253 Column_1254 Column_1255 Column_1256 Column_1257 Column_1258 Column_1259 Column_1260 Column_1261 Column_1262 Column_1263 Column_1264 Column_1265 Column_1266 Column_1267 Column_1268 Column_1269 Column_1270 Column_1271 Column_1272 Column_1273 Column_1274 Column_1275 Column_1276 Column_1277 Column_1278 Column_1279 Column_1280 Column_1281 Column_1282 Column_1283 Column_1284 Column_1285 Column_1286 Column_1287 Column_1288 Column_1289 Column_1290 Column_1291 Column_1292 Column_1293 Column_1294 Column_1295 Column_1296 Column_1297 Column_1298 Column_1299 Column_1300 Column_1301 Column_1302 Column_1303 Column_1304 Column_1305 Column_1306 Column_1307 Column_1308 Column_1309 Column_1310 Column_1311 Column_1312 Column_1313 Column_1314 Column_1315 Column_1316 Column_1317 Column_1318 Column_1319 Column_1320 Column_1321 Column_1322 Column_1323 Column_1324 Column_1325 Column_1326 Column_1327 Column_1328
feature_infos=[-7.73883056640625:14.852763175964355] [-8.0787906646728516:12.228056907653809] [-11.072658538818359:13.78914737701416] [-7.7436528205871582:10.432870864868164] [-4.336881160736084:8.6466217041015625] [-6.8669757843017578:9.4988880157470703] [-6.8162841796875:11.212666511535645] [-6.9629158973693848:7.2580704689025879] [-6.4231624603271484:8.1982908248901367] [-6.7944760322570801:8.0466032028198242] [-8.054661750793457:7.6952724456787109] [-9.843653678894043:17.764984130859375] [-8.6177310943603516:13.801146507263184] [-5.0770516395568848:12.622093200683594] [-3.3332672119140625:3.3601629734039307] [-2.8553564548492432:12.330192565917969] [-9.0835943222045898:12.397289276123047] [-11.07737922668457:11.95976734161377] [-5.2966489791870117:5.7613925933837891] [0:1] [0:1] [0:1] [0:1] [0:1] [0:1] [0:1] [-3.2089934349060059:45.979995727539062] [-3.1351351737976074:44.536373138427734] [-9.9560737609863281:4.757026195526123] [-8.3993844985961914:6.2709536552429199] [-4.1398296356201172:58.918331146240234] [-3.4436328411102295:55.739238739013672] [-8.2779359817504883:66.650772094726562] [-6.4765105247497559:65.963043212890625] [-63.891132354736328:104.66822814941406] [-115.17357635498047:249.71907043457031] [-15.107025146484375:15.70704174041748] [-5.4587368965148926:6.0939221382141113] [-2.0010406970977783:1.8130955696105957] [-2.6725375652313232:2.3850116729736328] [-376064.71875:37356832] [-3.8113529682159424:5.7588596343994141] [-46.236957550048828:14.258425712585449] [-10.70514965057373:14.852763175964355] [-8.7487201690673828:12.164103507995605] [-8.3608188629150391:13.837029457092285] [-8.1229543685913086:10.651445388793945] [-4.8120207786560059:8.0297365188598633] [-9.9756107330322266:8.2639799118041992] [-10.121460914611816:8.3419933319091797] [-5.7931804656982422:6.8338356018066406] [-7.0574526786804199:9.2549800872802734] [-6.5386257171630859:8.4027118682861328] [-6.7055330276489258:8.1297521591186523] [-14.817968368530273:19.524312973022461] [-10.476020812988281:13.206646919250488] [-6.2733817100524902:12.922160148620605] [-4.4547276496887207:2.8778035640716553] [-2.8046581745147705:11.442139625549316] [-7.8008890151977539:14.587920188903809] [-8.8585958480834961:11.28176212310791] [-5.7465286254882812:5.9531593322753906] [0:1] [0:1] [0:1] [0:1] [0:1] [0:1] [0:1] [-3.8816440105438232:5.3487143516540527] [-3.7722563743591309:5.9096646308898926] [-16.693496704101562:4.334965705871582] [-12.660181999206543:4.1348476409912109] [-5.603452205657959:6.4090924263000488] [-4.1749100685119629:7.1700048446655273] [-8.2779359817504883:67.443931579589844] [-6.4765105247497559:69.723258972167969] [-63.891132354736328:81.803756713867188] [-71.588752746582031:110.73831176757812] [-15.107025146484375:15.812519073486328] [-7.4549880027770996:8.3503189086914062] [-1.8925502300262451:1.8211950063705444] [-2.5343968868255615:2.5102992057800293] [-25502038:16657837] [-4.1732974052429199:4.9560675621032715] [-8.6758871078491211:13.8731689453125] [-10.70514965057373:14.759882926940918] [-8.9048280715942383:9.5950889587402344] [-8.4538898468017578:14.57694149017334] [-8.920323371887207:9.6110115051269531] [-6.1076078414916992:7.5802035331726074] [-6.8669757843017578:9.0606288909912109] [-6.5654158592224121:10.076051712036133] [-5.7931804656982422:6.8209218978881836] [-6.3589177131652832:9.4562273025512695] [-6.5934948921203613:8.1615524291992188] [-7.8351263999938965:8.712407112121582] [-12.064519882202148:19.524312973022461] [-8.8241786956787109:12.618498802185059] [-5.7695531845092773:13.096226692199707] [-4.4547276496887207:3.3601629734039307] [-2.9278273582458496:12.016079902648926] [-8.2173166275024414:13.357684135437012] [-8.3860931396484375:9.6287689208984375] [-6.0669989585876465:5.1835441589355469] [0:1] [0:1] [0:1] [0:1] [0:1] [0:1] [0:1] [-3.8862931728363037:9.1829891204833984] [-3.7761204242706299:8.4220457077026367] [-13.230753898620605:5.1404485702514648] [-10.028364181518555:4.1652092933654785] [-4.0330667495727539:7.2845907211303711] [-3.8350412845611572:24.505218505859375] [-4.9389438629150391:64.116798400878906] [-4.4400501251220703:64.070960998535156] [-63.891132354736328:74.990203857421875] [-77.382148742675781:93.764595031738281] [-17.046558380126953:13.365330696105957] [-7.4549880027770996:6.1826858520507812] [-1.8818680047988892:1.7951203584671021] [-2.5048587322235107:2.5323855876922607] [-201967744:56747628] [-4.1732974052429199:5.4545025825500488] [-15.400040626525879:24.116230010986328] [-8.10284423828125:11.53361701965332] [-8.9106597900390625:11.801139831542969] [-18.939189910888672:11.543648719787598] [-10.97910213470459:9.9671239852905273] [-4.368039608001709:7.8304047584533691] [-5.1820025444030762:11.322060585021973] [-5.0489921569824219:11.686183929443359] [-7.029451847076416:9.7590866088867188] [-6.4581975936889648:8.375370979309082] [-6.4920763969421387:8.4628639221191406] [-8.1396713256835938:8.0909080505371094] [-9.843653678894043:23.832923889160156] [-8.0024347305297852:10.916420936584473] [-6.2733817100524902:10.159066200256348] [-3.3944907188415527:3.1918518543243408] [-2.4272527694702148:12.016079902648926] [-8.4619216918945312:11.945294380187988] [-11.07737922668457:11.95976734161377] [-6.0669989585876465:5.8334565162658691] [0:1] [0:1] [0:1] [0:1] [0:1] [0:1] [0:1] [-3.2089934349060059:45.979995727539062] [-3.1351351737976074:44.536373138427734] [-11.089459419250488:4.0932598114013672] [-9.1618947982788086:3.5313553810119629] [-5.369389533996582:7.2845907211303711] [-4.7332134246826172:7.5305848121643066] [-3.8220524787902832:63.895401000976562] [-3.5704047679901123:63.903347015380859] [-63.891132354736328:99.854057312011719] [-80.776779174804688:186.97889709472656] [-12.84912109375:15.812519073486328] [-7.4140491485595703:8.3503189086914062] [-1.8764909505844116:1.8113425970077515] [-2.3780686855316162:2.3168277740478516] [-43894912:56747628] [-4.0243630409240723:5.1100821495056152] [-9.9181509017944336:13.646928787231445] [-11.922484397888184:14.852763175964355] [-7.5284080505371094:12.228056907653809] [-8.1776056289672852:13.78914737701416] [-7.5647134780883789:10.379916191101074] [-4.368039608001709:7.8304047584533691] [-9.5562124252319336:9.5147590637207031] [-10.121460914611816:11.212666511535645] [-5.3774871826171875:9.3210000991821289] [-7.5999608039855957:9.4562273025512695] [-6.3652825355529785:8.0466032028198242] [-8.054661750793457:8.6058588027954102] [-9.6570730209350586:22.982696533203125] [-8.3229656219482422:11.356749534606934] [-6.9655041694641113:13.096226692199707] [-3.3944907188415527:2.7554059028625488] [-2.8717670440673828:12.330192565917969] [-10.875343322753906:14.587920188903809] [-9.8575286865234375:10.588988304138184] [-4.9929189682006836:5.8334565162658691] [0:1] [0:1] [0:1] [0:1] [0:1] [0:1] [0:1] [-5.1012840270996094:7.0899519920349121] [-4.8799829483032227:7.3541092872619629] [-11.089459419250488:4.7664351463317871] [-7.8923678398132324:6.2709536552429199] [-4.2221074104309082:58.918331146240234] [-3.723341703414917:55.739238739013672] [-3.3935904502868652:64.320976257324219] [-3.3158280849456787:64.127937316894531] [-63.891132354736328:91.614425659179688] [-75.470672607421875:190.35975646972656] [-13.990911483764648:14.34855842590332] [-7.9959006309509277:6.5267972946166992] [-1.8623727560043335:1.7680357694625854] [-2.3685727119445801:2.5102992057800293] [-43894912:95127840] [-4.1732974052429199:5.7588596343994141] [-46.236957550048828:13.153040885925293] [-18.017934799194336:11.73593807220459] [-19.7198486328125:10.928131103515625] [-18.16131591796875:17.081775665283203] [-20.081289291381836:11.389184951782227] [-4.905555248260498:13.154203414916992] [-4.9678177833557129:5.8162708282470703] [-29.68817138671875:44.953819274902344] [-5.4699430465698242:9.0219268798828125] [-5.5114293098449707:10.202067375183105] [-7.0286369323730469:13.160919189453125] [-8.3726482391357422:6.9554548263549805] [-4.7192292213439941:13.748029708862305] [-114.65223693847656:14.854386329650879] [-1270.8145751953125:1053.9566650390625] [-7.864112377166748:4.3002676963806152] [-7.5756306648254395:3.8003401756286621] [-2.6834897994995117:27.972162246704102] [-7.1311960220336914:10.555877685546875] [-18.469850540161133:12.83074951171875] [-17.84881591796875:11.606780052185059] [-19.073297500610352:11.699894905090332] [-18.267822265625:11.666604042053223] [-14.292993545532227:13.586692810058594] [-14.933651924133301:7.2438173294067383] [-46.070850372314453:44.299800872802734] [-5.3397722244262695:5.5202164649963379] [-5.4285717010498047:8.2899999618530273] [-6.099822998046875:12.504023551940918] [-6.7564983367919922:6.8703851699829102] [-4.3760857582092285:12.272214889526367] [-47.842151641845703:47.885459899902344] [-1040.9124755859375:1524.4783935546875] [-18.815204620361328:5.9765067100524902] [-4.3980727195739746:5.0679593086242676] [-3.5230770111083984:27.65681266784668] [-4.2113208770751953:10.928929328918457] [-18.039230346679688:11.314082145690918] [-18.405256271362305:10.887844085693359] [-17.992343902587891:11.155920028686523] [-18.714967727661133:11.374735832214355] [-6.0884895324707031:12.813844680786133] [-7.177116870880127:6.5432252883911133] [-49.477325439453125:47.292415618896484] [-4.9990401268005371:6.4200716018676758] [-4.3096818923950195:9.1681995391845703] [-6.0064029693603516:11.794919967651367] [-7.1267194747924805:6.6424336433410645] [-4.1011266708374023:15.044862747192383] [-13.547347068786621:46.588973999023438] [-1310.84912109375:1905.96826171875] [-17.151950836181641:15.61638355255127] [-4.6221656799316406:3.5542027950286865] [-2.6818027496337891:33.715290069580078] [-4.1762628555297852:9.5627050399780273] [-18.02775764465332:11.029447555541992] [-17.981561660766602:11.316485404968262] [-18.347442626953125:12.790592193603516] [-18.133323669433594:10.485479354858398] [-8.1951189041137695:12.911852836608887] [-8.5776529312133789:7.0487933158874512] [-65.38348388671875:50.897518157958984] [-7.3118715286254883:7.6966977119445801] [-4.6659188270568848:9.4598054885864258] [-6.15087890625:9.831120491027832] [-7.0902976989746094:7.3181486129760742] [-4.4460029602050781:11.873931884765625] [-11.864499092102051:78.318473815917969] [-1189.7913818359375:3014.019287109375] [-17.287372589111328:10.805662155151367] [-4.0256738662719727:3.8207778930664062] [-3.204099178314209:24.779098510742188] [-4.7870287895202637:9.0167455673217773] [-19.744552612304688:9.8924846649169922] [-17.863336563110352:11.093565940856934] [-18.068149566650391:10.48976993560791] [-18.862281799316406:10.490678787231445] [-6.6926975250244141:14.365565299987793] [-6.8226485252380371:5.4500794410705566] [-46.107521057128906:34.702033996582031] [-7.934394359588623:7.6966977119445801] [-4.8839712142944336:7.1263160705566406] [-4.8352489471435547:8.6771774291992188] [-7.3160395622253418:8.8309736251831055] [-3.6880252361297607:15.036650657653809] [-12.788654327392578:411.5347900390625] [-1347.9788818359375:1191.6099853515625] [-18.894021987915039:6.0414485931396484] [-6.1553134918212891:4.1362109184265137] [-3.0660159587860107:34.684745788574219] [-4.3899412155151367:8.2292070388793945] [0:1.7077252864837646] [-0.96212750673294067:1.2798384428024292] [-1.5940151214599609:0.15191991627216339] [-0.78805166482925415:1.0079594850540161] [-1.2227241992950439:0.6216580867767334] [-1.4774543046951294:0.58061134815216064] [-0.71878647804260254:1.1407049894332886] [-0.96229183673858643:0.72597295045852661] [-0.22787396609783173:1.5752114057540894] [-0.78363054990768433:1.2263994216918945] [-0.75728005170822144:1.3941954374313354] [-1.6642879247665405:0.90199631452560425] [-0.39923807978630066:1.4079384803771973] [-1.1382732391357422:0.76920908689498901] [-0.90944391489028931:1.0816466808319092] [-0.8312717080116272:0.92994052171707153] [-0.69891083240509033:1.0090562105178833] [-0.19168853759765625:1.5666831731796265] [-0.64368456602096558:1.3831033706665039] [-1.7977533340454102:0.36701628565788269] [-1.4641788005828857:0.46216392517089844] [-1.389333963394165:0.8303370475769043] [-0.79948103427886963:1.0857076644897461] [-1.5726112127304077:0.39786240458488464] [-1.1797459125518799:1.5072377920150757] [-1.78242027759552:0.045787043869495392] [-0.85424208641052246:0.94807815551757812] [-0.18575082719326019:1.8894156217575073] [-0.46319526433944702:1.6846011877059937] [-1.2250891923904419:0.68571853637695312] [-0.50835698843002319:1.6803244352340698] [-0.64323067665100098:1.3670922517776489] [-1.2928842306137085:0.79330438375473022] [-0.29409366846084595:1.6077989339828491] [-0.75564157962799072:1.2048764228820801] [-0.56936502456665039:1.6773571968078613] [-0.48637655377388:1.4860955476760864] [-0.60124802589416504:1.0230623483657837] [-0.78698688745498657:1.0676401853561401] [-1.1957958936691284:0.49173414707183838] [-0.49621155858039856:1.2883313894271851] [-0.66820019483566284:1.1381536722183228] [-0.25449198484420776:1.6946277618408203] [-0.90355569124221802:1.3994457721710205] [-1.4245787858963013:0.46433916687965393] [-1.082763671875:1.1173237562179565] [-0.23180866241455078:1.5890785455703735] [-1.6344695091247559:0.34612241387367249] [-0.79562884569168091:1.1481375694274902] [-1.0491195917129517:0.70425671339035034] [-1.2906615734100342:0.50301802158355713] [-1.597504734992981:0.30264508724212646] [-0.50082552433013916:1.4503058195114136] [-1.3918728828430176:0.69108933210372925] [-0.62152719497680664:1.5165517330169678] [-0.84527295827865601:1.1500458717346191] [-0.21862159669399261:1.787676215171814] [-1.3322166204452515:0.85072320699691772] [-0.5686497688293457:1.3309279680252075] [-1.0344797372817993:0.91265749931335449] [-0.65380769968032837:1.0187696218490601] [0:6.8413615226745605] [-1.2675187587738037:1.1586763858795166] [-0.42772889137268066:1.5703097581863403] [-0.69760644435882568:1.3879721164703369] [-0.42136326432228088:2.0170302391052246] [-1.1015694141387939:1.0238746404647827] [-1.2880703210830688:0.71259313821792603] [-0.93445652723312378:1.2363063097000122] [-1.4575899839401245:0.50573098659515381] [-1.0567178726196289:1.0701793432235718] [-0.90128284692764282:1.0261964797973633] [-1.3728865385055542:0.8065718412399292] [-1.4971345663070679:0.57140004634857178] [-1.4578208923339844:0.82960551977157593] [-0.88433432579040527:0.92794358730316162] [-0.53324544429779053:1.3833270072937012] [-0.49559074640274048:1.2529666423797607] [-0.70436197519302368:1.0000377893447876] [-0.6097443699836731:0.99801397323608398] [-1.45208740234375:0.84589779376983643] [-0.43763300776481628:1.6105607748031616] [-0.79129701852798462:1.324066162109375] [-0.57602530717849731:1.3581693172454834] [-1.4741965532302856:0.54233807325363159] [-1.0433511734008789:0.77326881885528564] [-0.82203030586242676:1.3044502735137939] [-6.8344812393188477:0] [-0.4408944845199585:1.4046661853790283] [-0.68940949440002441:0.91386157274246216] [-0.42270141839981079:1.7428582906723022] [-1.3972405195236206:0.43914318084716797] [-1.3535330295562744:0.483438640832901] [-1.2156131267547607:0.8990476131439209] [-0.83448034524917603:0.80661261081695557] [-1.6578601598739624:0.46563044190406799] [-0.63203346729278564:1.180632472038269] [-1.3100956678390503:0.4396512508392334] [-0.95951896905899048:1.4491596221923828] [-1.3554468154907227:0.54350835084915161] [-0.48603236675262451:1.1578640937805176] [-1.4253796339035034:0.38214823603630066] [-1.2001303434371948:1.3554167747497559] [-1.2884351015090942:0.89996993541717529] [-1.2179527282714844:0.64268648624420166] [-0.92260128259658813:0.91383177042007446] [-1.1080664396286011:0.81430011987686157] [-0.57800853252410889:1.9334285259246826] [-1.5773162841796875:0.33141684532165527] [-0.86031031608581543:1.6170467138290405] [-1.0657296180725098:1.1434215307235718] [-1.3144971132278442:0.33016327023506165] [-0.98285359144210815:0.80289685726165771] [-0.80817747116088867:1.3280317783355713] [-1.5898234844207764:0.26050961017608643] [-1.220439076423645:0.62955552339553833] [-0.91639798879623413:1.1604952812194824] [0:1.8907835483551025] [-0.52456873655319214:1.5088673830032349] [-0.83558523654937744:1.1477068662643433] [-1.966382622718811:0.26227003335952759] [-0.78742539882659912:1.2150903940200806] [-1.6748571395874023:0.46739670634269714] [-1.3983826637268066:0.4901883602142334] [-1.3272280693054199:0.61486005783081055] [-1.1223645210266113:1.0362685918807983] [0:1.9471210241317749] [-0.96372026205062866:0.88224631547927856] [-0.93716222047805786:1.2174153327941895] [-0.84559875726699829:1.3233319520950317] [-0.77922046184539795:1.0533262491226196] [-0.73628854751586914:1.1793711185455322] [-0.26500272750854492:1.8643409013748169] [-1.4072096347808838:0.37821859121322632] [-1.5485618114471436:0.51017624139785767] [-0.48405858874320984:1.5252141952514648] [-0.71918296813964844:1.1485192775726318] [-0.9908444881439209:0.58318167924880981] [-0.55624759197235107:1.2858045101165771] [-1.0036975145339966:0.58657187223434448] [-0.91274803876876831:1.1364209651947021] [-1.3280931711196899:0.61434829235076904] [-1.5375295877456665:0.44153103232383728] [-1.0821151733398438:0.79595130681991577] [-1.3013074398040771:0.57870537042617798] [-1.0554287433624268:0.86295723915100098] [-1.0702186822891235:0.84654402732849121] [-0.42895305156707764:1.5247470140457153] [-1.4854530096054077:0.029113629832863808] [-1.0423365831375122:0.77607673406600952] [-1.0798467397689819:0.96501296758651733] [-1.2421090602874756:0.5436251163482666] [-0.77780640125274658:0.98396259546279907] [-0.88702487945556641:1.2158527374267578] [-1.1041587591171265:1.0257111787796021] [-1.5342940092086792:0.42180696129798889] [-1.0187926292419434:0.98461222648620605] [0:2.1444897651672363] [-0.54220348596572876:1.4392995834350586] [-1.5085409879684448:0.30288851261138916] [-1.190345287322998:0.5464511513710022] [-0.74749892950057983:1.1854426860809326] [-1.2875188589096069:1.0929665565490723] [-0.70111685991287231:1.2916942834854126] [-1.6269361972808838:0.66446042060852051] [-0.87551534175872803:1.0241806507110596] [-1.7117733955383301:0.13833650946617126] [-0.98329222202301025:0.71876007318496704] [-1.0432100296020508:0.84830701351165771] [-0.76740968227386475:1.1270411014556885] [-1.9149696826934814:0.47579914331436157] [-1.8340181112289429:0.62051010131835938] [-1.4270808696746826:0.45040833950042725] [-1.0493401288986206:1.0403734445571899] [-0.27207797765731812:1.6037101745605469] [-1.6169388294219971:0.51419049501419067] [-1.0482769012451172:0.91771489381790161] [-0.34647482633590698:1.3487659692764282] [-1.1859924793243408:0.70499217510223389] [-0.4674132764339447:1.6803830862045288] [-1.1253111362457275:0.63239341974258423] [-0.31790792942047119:1.7535457611083984] [-0.96858745813369751:1.0912736654281616] [-0.85676097869873047:0.955485999584198] [-0.92668461799621582:0.77187275886535645] [-1.7707736492156982:0.10053271800279617] [-0.66546034812927246:1.5205000638961792] [-0.11089439690113068:1.681875467300415] [-1.019889235496521:1.1767823696136475] [-0.95924335718154907:1.015587329864502] [-1.59621262550354:0.28377744555473328] [-1.09034264087677:0.74940496683120728] [-0.26097026467323303:1.8554768562316895] [-0.84759503602981567:1.2465822696685791] [-1.1471041440963745:1.0519737005233765] [-1.1879448890686035:0.98276335000991821] [-0.36368483304977417:1.6511383056640625] [-1.1746459007263184:0.40690299868583679] [-0.95419645309448242:0.91363686323165894] [-0.68454694747924805:1.5544538497924805] [-1.3745690584182739:0.50676983594894409] [-1.5017582178115845:0.31133493781089783] [-1.9185137748718262:0.45909342169761658] [-1.1941028833389282:0.74401509761810303] [-1.2467126846313477:0.5754857063293457] [-1.4622349739074707:0.31130915880203247] [-0.0085584782063961029:1.8335046768188477] [-1.4225180149078369:0.77511793375015259] [-0.49009895324707031:1.4793075323104858] [-1.233690619468689:0.37194249033927917] [-1.5792777538299561:0.60308116674423218] [-0.87193822860717773:0.87763333320617676] [-0.5283394455909729:1.2221699953079224] [-1.1213034391403198:0.78984725475311279] [-0.53894239664077759:1.2897599935531616] [-1.1807653903961182:0.9506489634513855] [-1.5320858955383301:0.6914680004119873] [-1.7768844366073608:0.21750845015048981] [-1.1897307634353638:0.85656356811523438] [-1.2358798980712891:0.53622442483901978] [-1.2430124282836914:0.60107427835464478] [-1.097781777381897:0.66169804334640503] [-1.2838870286941528:0.6774672269821167] [-1.2355654239654541:0.77177107334136963] [-1.5435513257980347:0.40948155522346497] [-1.7558541297912598:0.056834869086742401] [-0.96346694231033325:0.94589310884475708] [-0.87033426761627197:1.2788505554199219] [-1.0553616285324097:0.99672228097915649] [-0.87912756204605103:1.2274183034896851] [-0.65058666467666626:0.96060478687286377] [-1.1244441270828247:0.85382199287414551] [-0.94687551259994507:0.95477968454360962] [-0.97416740655899048:0.76820993423461914] [-0.63784170150756836:1.4903527498245239] [-0.99728798866271973:1.2442519664764404] [-1.1355142593383789:1.0672794580459595] [-1.2035007476806641:0.56533277034759521] [-1.2342653274536133:1.2431025505065918] [-1.5663485527038574:0.28972408175468445] [-1.9603321552276611:0.50353050231933594] [-0.48587003350257874:1.5576677322387695] [-1.0903193950653076:0.74189215898513794] [-1.2871712446212769:0.76024061441421509] [-0.50920760631561279:1.3596131801605225] [-0.68360799551010132:1.4022476673126221] [-1.6239911317825317:0.33461615443229675] [-0.52958285808563232:1.5402404069900513] [-0.92502278089523315:0.82374948263168335] [-0.14606486260890961:1.7230597734451294] [-1.3033711910247803:0.6823573112487793] [-1.1810338497161865:0.90454864501953125] [-1.7313669919967651:0.25046136975288391] [-1.6358737945556641:0.25025999546051025] [-0.93549466133117676:0.67182350158691406] [-1.3136121034622192:0.63112914562225342] [-0.77151626348495483:1.2512158155441284] [-1.8204774856567383:0.13223154842853546] [-0.481871098279953:1.3647140264511108] [-0.86907279491424561:0.78297466039657593] [-0.51162362098693848:1.3821213245391846] [-1.7349172830581665:0] [-0.8999786376953125:0.79610371589660645] [-0.813182532787323:0.92837274074554443] [-1.1182404756546021:0.70218437910079956] [-0.7651439905166626:1.3704034090042114] [-0.8171040415763855:0.89161586761474609] [-0.22843548655509949:1.7512128353118896] [-0.92429399490356445:1.3530447483062744] [-1.2663271427154541:0.64982485771179199] [-1.3879956007003784:0.46969816088676453] [-0.7539483904838562:0.9789312481880188] [-0.29508259892463684:1.550797700881958] [-1.2623192071914673:1.0674967765808105] [-1.3225880861282349:0.77801275253295898] [-1.8466775417327881:0.33323052525520325] [-0.74718636274337769:1.3676320314407349] [-1.8902866840362549:0.44402974843978882] [-1.0720921754837036:1.4444142580032349] [-0.60444450378417969:1.32700514793396] [-1.0591259002685547:1.332571268081665] [-1.1744894981384277:0.80047190189361572] [-1.1686714887619019:1.0240978002548218] [-0.91315656900405884:1.0323362350463867] [-0.31544733047485352:1.4896608591079712] [-1.1397237777709961:0.77350562810897827] [-0.94857418537139893:1.0915026664733887] [-1.1010146141052246:0.97155416011810303] [-0.0074210795573890209:2.0829160213470459] [-0.37621194124221802:1.4892202615737915] [-1.6427565813064575:0.4393991231918335] [-1.0361678600311279:0.84718787670135498] [-1.0397945642471313:1.2937581539154053] [-1.013795018196106:1.0181726217269897] [-0.96030449867248535:1.0364387035369873] [-0.73703759908676147:1.2451694011688232] [-0.71276092529296875:1.0566025972366333] [-1.4307864904403687:0.47899636626243591] [-0.37903305888175964:1.383195161819458] [-0.58490520715713501:1.713167667388916] [-1.5212451219558716:0.70558255910873413] [-1.683138370513916:0.16279253363609314] [-1.2884058952331543:1.1962519884109497] [-0.7213134765625:1.0100182294845581] [-1.0212657451629639:0.69122767448425293] [-0.35053649544715881:1.6279833316802979] [-1.7460572719573975:0.22302892804145813] [-1.3377875089645386:0.62385278940200806] [-0.70235836505889893:1.2468299865722656] [-0.84751296043395996:0.84955650568008423] [-0.96355074644088745:1.069275975227356] [-1.0661827325820923:0.92075449228286743] [-0.97393405437469482:0.95759767293930054] [-1.2066935300827026:0.84693962335586548] [-0.33920124173164368:1.5318676233291626] [-1.5260117053985596:0.41850802302360535] [-0.14667332172393799:1.7059067487716675] [-0.59366697072982788:1.3223868608474731] [-0.3734109103679657:1.7125692367553711] [-0.8879120945930481:1.2833324670791626] [-1.1360087394714355:0.72305363416671753] [-0.80514824390411377:1.3481818437576294] [-1.6683722734451294:0.32108590006828308] [-0.91994768381118774:1.281340479850769] [-1.3856644630432129:0.50394666194915771] [-1.7979001998901367:0.12106435745954514] [-0.9752802848815918:1.1169639825820923] [-0.56810742616653442:1.4187521934509277] [-1.5031781196594238:0.69951307773590088] [-0.52342194318771362:1.396958589553833] [0:2.0498607158660889] [-0.37926295399665833:1.5360270738601685] [-0.64524030685424805:1.033855676651001] [-1.037841796875:0.93552708625793457] [-1.4947121143341064:0.57525438070297241] [-0.98061096668243408:0.96977853775024414] [-0.87542885541915894:0.89099311828613281] [-0.35838770866394043:1.533496618270874] [-1.0613462924957275:1.0331320762634277] [-0.30470544099807739:1.4922384023666382] [-0.44041615724563599:1.1766942739486694] [-0.79265874624252319:1.0541024208068848] [-0.36816954612731934:1.5662753582000732] [-1.3077186346054077:0.60881316661834717] [-0.87758868932723999:1.1331360340118408] [-0.90534812211990356:0.93703711032867432] [-0.42688524723052979:1.4011718034744263] [-1.1502526998519897:1.0820331573486328] [-1.2368429899215698:0.46384647488594055] [-1.1875631809234619:0.86240851879119873] [-1.6162060499191284:0.339069664478302] [-1.2357574701309204:0.91704583168029785] [-0.89991956949234009:0.78922837972640991] [-1.1185450553894043:0.58197379112243652] [-1.3021671772003174:0.5035240650177002] [-0.65823227167129517:1.3076516389846802] [-1.0437090396881104:0.97481346130371094] [-1.2009689807891846:0.57517361640930176] [-0.7589271068572998:1.377269983291626] [-0.031732909381389618:1.6014366149902344] [-1.0782262086868286:1.1578882932662964] [-1.3086835145950317:0.52807533740997314] [-1.4962815046310425:0.27078628540039062] [0:2.0621786117553711] [-1.0895479917526245:0.95297181606292725] [-1.5949921607971191:0.30623322725296021] [-1.2229310274124146:0.71265327930450439] [-0.13074329495429993:1.5516712665557861] [-1.4310439825057983:0.5472419261932373] [-1.0609660148620605:0.85096746683120728] [-1.4195975065231323:0.73682820796966553] [-0.92279624938964844:0.66709738969802856] [-0.85917288064956665:1.321704626083374] [-1.6568608283996582:0.45373746752738953] [-0.24887283146381378:1.328668475151062] [-1.1472725868225098:0.72837746143341064] [-0.3037850558757782:1.9650107622146606] [-0.78883057832717896:1.0806537866592407] [-0.43589726090431213:1.9220626354217529] [-0.99658745527267456:1.2459585666656494] [-1.4557633399963379:0.66228652000427246] [-1.0894896984100342:0.79541772603988647] [-0.70739656686782837:1.1683595180511475] [-1.3078105449676514:0.72100913524627686] [-1.9946460723876953:0.084664419293403625] [-1.156491756439209:0.92069721221923828] [-1.0617002248764038:1.0920964479446411] [-1.0482244491577148:0.67981290817260742] [-0.65770435333251953:1.4106425046920776] [-0.5872531533241272:1.9026256799697876] [-0.84019869565963745:0.83574634790420532] [-1.3387465476989746:0.73324829339981079] [-1.3372604846954346:0.65515720844268799] [-1.1443253755569458:1.0248785018920898] [-0.86691492795944214:1.1462621688842773] [-0.63656562566757202:1.1876342296600342] [-0.59033435583114624:1.6180820465087891] [-1.4247808456420898:0.68641471862792969] [-1.3728605508804321:0.44129237532615662] [-0.69641333818435669:1.3783566951751709] [-1.533683180809021:1.0813937187194824] [-1.3850704431533813:0.6488800048828125] [-1.4348412752151489:0.33315899968147278] [-1.3934519290924072:0.46523094177246094] [-0.95933276414871216:0.88153702020645142] [-0.77278715372085571:1.3534018993377686] [-0.42074629664421082:1.2875224351882935] [-0.91140937805175781:1.0343005657196045] [-0.87615394592285156:1.0984777212142944] [-0.96851563453674316:1.0764769315719604] [-1.3863428831100464:0.96816778182983398] [-1.2054574489593506:0.67510503530502319] [-0.32506236433982849:1.2149790525436401] [-1.1904114484786987:0.73642158508300781] [-0.99021047353744507:0.79496479034423828] [-0.69353771209716797:1.0250856876373291] [-0.92729389667510986:0.85374575853347778] [-1.2097610235214233:1.1053862571716309] [-1.1383345127105713:0.74728059768676758] [-1.3114550113677979:0.59166890382766724] [-0.72651422023773193:1.164719820022583] [-0.9096793532371521:0.96360129117965698] [-1.3047730922698975:0.82586723566055298] [-0.40627485513687134:1.6022143363952637] [-1.4453881978988647:0.95657002925872803] [-1.9135431051254272:0.15495717525482178] [-0.43355131149291992:1.2955578565597534] [-1.9311774969100952:0] [-1.5031569004058838:0.5767255425453186] [-0.95350134372711182:0.96059578657150269] [-0.62221348285675049:1.0933471918106079] [-0.01231367327272892:2.0087218284606934] [-0.94611167907714844:0.77800625562667847] [-1.1551368236541748:0.64349395036697388] [-1.1333540678024292:1.149957537651062] [-0.96860867738723755:0.96897047758102417] [-1.3703789710998535:0.789356529712677] [-0.81190359592437744:1.0894641876220703] [-0.95952165126800537:1.1324107646942139] [-1.6106407642364502:0.11513007432222366] [-0.98187875747680664:1.2544174194335938] [-1.1226609945297241:0.63997644186019897] [-0.6372990608215332:1.0646094083786011] [-1.4442013502120972:0.71032512187957764] [-1.111451268196106:0.87953448295593262] [0:1.6030658483505249] [-1.0056569576263428:0.91783595085144043] [-1.2101891040802002:0.67431968450546265] [-0.29960465431213379:1.6463853120803833] [-0.77186614274978638:1.0750777721405029] [-1.0497138500213623:0.81067150831222534] [-1.0218933820724487:1.0638821125030518] [0:2.1553678512573242] [-0.9485628604888916:0.77949708700180054] [0:16.821428298950195] [-0.50920110940933228:1.4618005752563477] [-1.5836937427520752:0.51754647493362427] [-1.0943584442138672:0.96336686611175537] [-1.7035950422286987:0.42384070158004761] [-1.4693801403045654:0.63204824924468994] [-0.8290213942527771:1.1939651966094971] [-0.6995847225189209:1.4343973398208618] [-0.96806424856185913:1.0701667070388794] [-0.88651394844055176:1.1570849418640137] [-0.95723766088485718:0.59326761960983276] [-1.5603582859039307:0.78891235589981079] [-0.75183051824569702:1.3287379741668701] [-1.3867052793502808:0.52061164379119873] [-0.7707478404045105:1.2458089590072632] [-0.52087438106536865:1.4421103000640869] [-1.420016884803772:0.6299629807472229] [-1.4796203374862671:0.63866984844207764] [-1.2135031223297119:0.73630297183990479] [-0.51225262880325317:1.2751215696334839] [-1.353095531463623:0.45655936002731323] [-0.71082574129104614:1.174639105796814] [-1.4095996618270874:0.37159264087677002] [-1.3225994110107422:0.81620913743972778] [-1.0179840326309204:1.170166015625] [-1.4246070384979248:0.15087674558162689] [-1.17689049243927:0.74794620275497437] [-0.67467939853668213:1.2135436534881592] [-0.97383880615234375:1.0707699060440063] [-1.4888521432876587:0.54661232233047485] [-1.7936179637908936:0.22648702561855316] [-0.64709877967834473:1.3305400609970093] [-1.0651727914810181:0.87144875526428223] [-1.0099025964736938:0.67916387319564819] [-0.34283682703971863:1.5077450275421143] [-1.6698533296585083:0.0064576664008200169] [-0.17229042947292328:1.5784156322479248] [-1.9833587408065796:0.72567462921142578] [-1.0973645448684692:0.69706588983535767] [-1.6001477241516113:0.46282225847244263] [-1.3670141696929932:0.77733999490737915] [-0.88522958755493164:0.96374624967575073] [-0.35645365715026855:1.5534307956695557] [-0.80485653877258301:0.76285034418106079] [-0.97710531949996948:0.94492095708847046] [-0.91524982452392578:0.87293058633804321] [-1.3906731605529785:0.69303160905838013] [-0.89266282320022583:0.96418255567550659] [-0.49818074703216553:1.2262147665023804] [-0.66623657941818237:1.0364949703216553] [-0.95969873666763306:0.87272727489471436] [-0.94748419523239136:0.7023613452911377] [-1.223030686378479:0.77690589427947998] [-0.27699777483940125:1.5986353158950806] [-0.76371777057647705:1.1105794906616211] [-0.2992195188999176:1.4592568874359131] [-0.8606717586517334:1.1673480272293091] [-0.47875800728797913:1.4302380084991455] [-0.84513950347900391:1.3727548122406006] [-1.3018002510070801:0.50049996376037598] [-0.88832700252532959:1.1868302822113037] [-1.9612443447113037:0] [-1.0861660242080688:0.63849794864654541] [-1.8994238376617432:0.16452190279960632] [-1.6581567525863647:0.23111061751842499] [-0.66149604320526123:0.91722720861434937] [-1.5213066339492798:0.45794275403022766] [-0.85590487718582153:1.071168065071106] [-0.77721786499023438:1.0197904109954834] [-0.86408072710037231:0.82782828807830811] [-0.33157205581665039:1.5312296152114868] [-1.0332090854644775:0.9785735011100769] [-0.74140781164169312:1.3447433710098267] [-1.0336482524871826:1.0387219190597534] [-1.2140367031097412:0.78655236959457397] [-1.1952235698699951:0.580757737159729] [-0.18708029389381409:1.404578685760498] [-0.87135696411132812:1.1588737964630127] [-1.0546697378158569:0.72603607177734375] [-0.77324730157852173:1.5316982269287109] [-1.1580451726913452:0.70126885175704956] [-0.34593513607978821:1.3359445333480835] [-1.540152907371521:0.31864959001541138] [-1.2597182989120483:0.5714188814163208] [-1.1794540882110596:0.94128066301345825] [-1.8560137748718262:0.3442017138004303] [-0.40178596973419189:1.3813396692276001] [-0.58356350660324097:1.2669764757156372] [-0.84811598062515259:1.0455048084259033] [-1.3022671937942505:0.70824211835861206] [-0.77228504419326782:0.8658415675163269] [-1.0133501291275024:1.0701298713684082] [-0.40180736780166626:1.4036130905151367] [-0.85514628887176514:1.1163198947906494] [-0.69110202789306641:1.1881551742553711] [-1.1221323013305664:0.85904127359390259] [-1.0903046131134033:0.84887522459030151] [-0.4867464005947113:1.5202933549880981] [-0.3432331383228302:1.3469959497451782] [-1.0186309814453125:1.0076615810394287] [-0.87348854541778564:1.6146838665008545] [-0.84173476696014404:1.0778664350509644] [-0.50104004144668579:1.5369079113006592] [-0.82956880331039429:1.1685985326766968] [-0.69365990161895752:1.1546245813369751] [-1.2355856895446777:0.80804741382598877] [-1.8788948059082031:0.21460427343845367] [-0.87558847665786743:1.3877184391021729] [-0.82005512714385986:1.1872513294219971] [-0.74786311388015747:1.1371409893035889] [-1.7085012197494507:0.26315787434577942] [-0.99992549419403076:1.1057432889938354] [-1.7224845886230469:0.51522558927536011] [-1.5548217296600342:0.37722927331924438] [-0.88739269971847534:1.0586353540420532] [-0.95357561111450195:0.88777667284011841] [-0.53428679704666138:1.3306798934936523] [-1.4360593557357788:0.4561525285243988] [-1.1480379104614258:1.0040692090988159] [-0.66125005483627319:1.3577471971511841] [-1.0921467542648315:0.61029154062271118] [-1.1203598976135254:1.0029639005661011] [-1.3693510293960571:0.57107120752334595] [-1.5209575891494751:0.45793440937995911] [-1.3222415447235107:0.33133789896965027] [-0.2662181556224823:1.4242020845413208] [-0.40036121010780334:1.3040640354156494] [-1.1447033882141113:0.88671857118606567] [-1.2858641147613525:0.99223172664642334] [-0.49857226014137268:1.9413939714431763] [-0.24713101983070374:1.4125027656555176] [-0.80872863531112671:1.305453896522522] [-1.0446858406066895:0.84873861074447632] [-1.5290348529815674:0.4595261812210083] [-1.2560769319534302:0.86160999536514282] [-0.35665953159332275:1.4251925945281982] [-1.3326973915100098:0.38331186771392822] [-1.1188499927520752:0.90853965282440186] [-1.6234798431396484:0.40511375665664673] [-0.89348506927490234:0.74799412488937378] [-1.0326799154281616:0.68607860803604126] [-0.28324699401855469:2.2617409229278564] [-1.1579293012619019:1.1383246183395386] [-1.7839936017990112:0.64411801099777222] [-1.523747444152832:0.33104404807090759] [-0.48503032326698303:1.5156911611557007] [-0.79400062561035156:0.88387560844421387] [-0.34026992321014404:1.604107141494751] [-1.6057294607162476:0.40637388825416565] [-1.1428923606872559:0.87580615282058716] [-1.0458554029464722:1.116937518119812] [-0.75598418712615967:1.4785768985748291] [-0.29485517740249634:1.6595734357833862] [-1.0378628969192505:0.60389721393585205] [-1.1381543874740601:0.83184295892715454] [-1.6784989833831787:0.43239101767539978] [-0.83877038955688477:0.71543043851852417] [-0.91106158494949341:0.84179514646530151] [-1.7246689796447754:0.37982669472694397] [-0.79751372337341309:1.2276246547698975] [-1.940298318862915:0.46462401747703552] [-0.46225270628929138:1.4536556005477905] [-0.81237256526947021:1.2844234704971313] [-0.070135034620761871:1.5890622138977051] [-1.739250659942627:0.45679545402526855] [-1.2612361907958984:0.56969535350799561] [-1.2358468770980835:0.99982285499572754] [-0.91406947374343872:0.95627772808074951] [-1.2608212232589722:0.71372103691101074] [-0.93130576610565186:2.2022006511688232] [0:6.0762038230895996] [-0.9447486400604248:0.88959836959838867] [-1.1915302276611328:0.70775943994522095] [-0.68735957145690918:1.2837697267532349] [-1.3631924390792847:0.81062591075897217] [-2.0307140350341797:0.1087324395775795] [-0.76865732669830322:1.1173155307769775] [-1.6704533100128174:0.63261330127716064] [-1.6374280452728271:0.38297176361083984] [-0.21419517695903778:1.6931958198547363] [-0.80714190006256104:1.1967238187789917] [-1.407692551612854:0.6643904447555542] [-1.1760042905807495:0.38495913147926331] [-0.29636079072952271:1.7536772489547729] [-0.22829487919807434:1.7867807149887085] [-1.7596986293792725:0.42811384797096252] [-0.69131982326507568:1.2275881767272949] [-1.6352781057357788:0.46232843399047852] [-0.40737783908843994:1.3362125158309937] [-1.2372051477432251:0.54798364639282227] [-0.47426849603652954:1.1687757968902588] [-1.1612745523452759:0.85116374492645264] [-1.68766188621521:0] [-0.8573223352432251:0.97709912061691284] [-1.5221949815750122:0.41252690553665161] [-1.6359882354736328:0.73444724082946777] [-0.98216438293457031:1.1776348352432251] [-0.77065026760101318:1.4411041736602783] [-1.2665512561798096:0.63298481702804565] [-0.72537797689437866:1.1008296012878418] [-1.1536746025085449:0.73905038833618164] [-0.021604530513286591:1.9255554676055908] [-0.34571060538291931:1.4447540044784546] [-1.3161803483963013:0.82329374551773071] [-1.0624979734420776:0.69834667444229126] [-0.61627084016799927:1.1685490608215332] [-1.692790150642395:0.24871355295181274] [-1.2015955448150635:0.66606545448303223] [-1.0866260528564453:0.63112121820449829] [-0.66051465272903442:1.0478813648223877] [-1.3657674789428711:0.39559894800186157] [-1.2759993076324463:0.44960746169090271] [-0.99861210584640503:1.0171365737915039] [-0.75472968816757202:1.3399388790130615] [-0.5995556116104126:0.98427623510360718] [-0.28144729137420654:1.4128063917160034] [-1.5922116041183472:0.46078574657440186] [-1.0599129199981689:0.84022152423858643] [-1.0221277475357056:1.0831103324890137] [-0.82843661308288574:1.4251754283905029] [-0.75339120626449585:1.1839151382446289] [-0.85510069131851196:1.0881866216659546] [-0.59245246648788452:1.4707587957382202] [-0.64301127195358276:1.3961191177368164] [-1.2390800714492798:1.0966712236404419] [-1.1821410655975342:0.65047049522399902] [-1.2535429000854492:0.72922444343566895] [-0.98361796140670776:0.88013738393783569] [-0.32458853721618652:1.6021910905838013] [-0.80673927068710327:1.2520594596862793] [-1.0474045276641846:0.94679230451583862] [-1.1788780689239502:0.97474402189254761] [-0.72252184152603149:0.75946658849716187] [-1.1038715839385986:0.71441519260406494] [-1.329761266708374:0.71645772457122803] [-0.24216125905513763:1.916434645652771] [-1.2413038015365601:0.83829736709594727] [-1.9407472610473633:0.30098822712898254] [-1.1828039884567261:0.81862282752990723] [-1.2677204608917236:0.54650199413299561] [-0.44036397337913513:1.7695533037185669] [-0.064515657722949982:1.8152660131454468] [-0.91881436109542847:1.0080779790878296] [-1.0158035755157471:0.88344544172286987] [-1.6571263074874878:0.38686269521713257] [-0.56396830081939697:1.4343606233596802] [-0.8390691876411438:0.89388090372085571] [-0.51202201843261719:1.5625272989273071] [-1.7805765867233276:0.10718778520822525] [-1.7477667331695557:0.16377632319927216] [0:2.3097803592681885] [-0.86260336637496948:1.5369844436645508] [-2.3372032642364502:0] [-1.7725964784622192:0.58075451850891113] [-0.55177491903305054:1.7584787607192993] [-0.38143786787986755:1.4019488096237183] [-1.3899896144866943:0.20965175330638885] [-1.3827278614044189:0.79198360443115234] [-0.38633900880813599:1.3700824975967407] [-0.7639508843421936:0.943034827709198] [-1.1530890464782715:0.78660714626312256] [-1.5719975233078003:0.081306047737598419] [-1.3835773468017578:0.42799702286720276] [-0.78999036550521851:1.0542997121810913] [-1.3824268579483032:0.5673101544380188] [-0.40877997875213623:1.6502130031585693] [-0.91859126091003418:0.7500154972076416] [-1.0206576585769653:0.87144702672958374] [-0.61258196830749512:1.4127544164657593] [-0.87644994258880615:1.2968661785125732] [-0.42086383700370789:1.3949706554412842] [-1.0781203508377075:0.46292093396186829] [-0.6091962456703186:1.1587224006652832] [-0.77187627553939819:1.0697066783905029] [-0.82402437925338745:0.80795812606811523] [-1.1196349859237671:0.93394625186920166] [-0.85764884948730469:1.519720196723938] [-0.91865086555480957:0.85931223630905151] [-0.97792249917984009:0.72553431987762451] [-0.17432776093482971:1.6323661804199219] [-0.86441081762313843:1.0562351942062378] [-0.33327367901802063:1.4337836503982544] [-1.278834342956543:0.83052235841751099] [-1.1422181129455566:0.62446308135986328] [-0.82740062475204468:0.7603117823600769] [-1.4082465171813965:0.46427583694458008] [-1.0384222269058228:0.73580116033554077] [-0.74728274345397949:1.0996185541152954] [-0.99112123250961304:1.1520348787307739] [-0.55283331871032715:1.1218336820602417] [-0.69176268577575684:0.91406744718551636] [-1.9638077020645142:0.25575953722000122] [-0.42055428028106689:1.4045838117599487] [-1.3822360038757324:0.88843315839767456] [-1.3013672828674316:0.82244241237640381] [-1.0988963842391968:0.77266168594360352] [-0.7377583384513855:1.3098932504653931] [-1.1306489706039429:1.0216844081878662] [-1.7271829843521118:0.16190695762634277] [-0.40823462605476379:1.7567415237426758] [-1.1067428588867188:0.83063679933547974] [-1.2953993082046509:0.7018781304359436] [-1.2124671936035156:0.68176829814910889] [-0.36566191911697388:1.4651049375534058] [-1.2720026969909668:0.69347721338272095] [-1.0983841419219971:1.0873105525970459] [-0.69561296701431274:1.2873669862747192] [-2.0796036720275879:0] [-1.3972480297088623:0.51478767395019531] [-1.2481398582458496:0.65238863229751587] [-0.95253098011016846:1.234576940536499] [-1.7283165454864502:0.28211483359336853] [-1.4595723152160645:0.74099832773208618] [-1.4306002855300903:0.3583524227142334] [-0.96677404642105103:0.87014120817184448] [-0.80040901899337769:1.2184942960739136] [-0.55647152662277222:1.3594144582748413] [-1.183684229850769:0.79205328226089478] [-0.34111297130584717:1.7324713468551636] [-0.71630120277404785:1.2790107727050781] [-1.4783437252044678:0.59150338172912598] [-1.6477941274642944:0.72397315502166748] [-0.58072781562805176:1.2492213249206543] [-1.476243257522583:0.33856835961341858] [-1.0369075536727905:0.83828914165496826] [-1.2153376340866089:0.5097009539604187] [-1.7307425737380981:0.42208403348922729] [-0.89137691259384155:1.0642805099487305] [-1.2293574810028076:0.90415531396865845] [-0.77095729112625122:1.1764804124832153] [-1.6694636344909668:0.30560356378555298] [-0.037595987319946289:1.8481482267379761] [0:2.3921470642089844] [-1.364802360534668:0.62048959732055664] [-0.96952641010284424:0.9942355751991272] [-1.7699049711227417:0.40934902429580688] [-1.843055248260498:0.099449910223484039] [-0.44831892848014832:1.0849493741989136] [-0.77644425630569458:1.2018557786941528] [-0.92459696531295776:1.1396622657775879] [-0.78567546606063843:1.0811800956726074] [-1.2081167697906494:0.57814294099807739] [-1.3184067010879517:0.53038746118545532] [-1.1272242069244385:0.88962459564208984] [-1.5573360919952393:0.32312095165252686] [0:1.7333788871765137] [-1.819344162940979:0.14392620325088501] [-0.8365485668182373:1.0565454959869385] [-1.7654540538787842:0.34902337193489075] [-0.72670596837997437:0.87067997455596924] [-1.0790711641311646:0.92521953582763672] [-1.2537046670913696:0.88356935977935791] [-1.2421413660049438:0.48399856686592102] [-0.82311815023422241:1.1646965742111206] [-1.4921461343765259:0.32123881578445435] [-1.1397968530654907:0.8310546875] [-0.6874355673789978:0.89202463626861572] [-1.6874891519546509:0.30426383018493652] [-1.3454968929290771:0.61027443408966064] [-0.31361570954322815:1.4000964164733887] [-1.9060369729995728:0] [-1.0945417881011963:0.60980516672134399] [-1.6783784627914429:0.13463400304317474] [-1.2870023250579834:0.65213948488235474] [-1.0391550064086914:1.0065698623657227] [-0.49434629082679749:1.4753649234771729] [-0.3837350606918335:1.6808096170425415] [-1.626428484916687:0.25717660784721375] [-0.61722707748413086:1.6580177545547485] [-0.99681609869003296:1.1328736543655396] [-0.83962917327880859:1.0664538145065308] [-0.95590317249298096:0.91799139976501465] [-0.9562188982963562:0.95105499029159546] [-0.77121752500534058:1.0520902872085571] [-0.58079677820205688:1.4145505428314209] [-1.1759717464447021:0.83160090446472168] [-0.77434706687927246:1.2567552328109741] [-0.82949739694595337:1.4175846576690674] [-1.3562592267990112:0.53988015651702881] [-1.5295161008834839:0.45874437689781189] [-0.34991335868835449:1.7530645132064819] [-1.3785545825958252:1.0764780044555664] [-1.4645607471466064:0.53323274850845337] [-0.47674071788787842:1.2591941356658936] [-1.5381428003311157:0.38023492693901062] [-0.56106263399124146:1.1469295024871826] [-0.78332722187042236:1.089966893196106] [-0.6406409740447998:1.4751708507537842] [-0.43772566318511963:1.3157112598419189] [-0.5355110764503479:1.4332400560379028] [-0.82658141851425171:1.1396385431289673] [-1.2211722135543823:0.76761174201965332] [-0.96023321151733398:1.0207295417785645] [-0.89736521244049072:0.94994401931762695] [-1.0647165775299072:0.84036707878112793] [-0.44743478298187256:1.4390314817428589] [-0.74645614624023438:1.0754066705703735] [-1.9641588926315308:0] [-1.1217590570449829:0.50878441333770752] [-1.5419974327087402:0.55995559692382812] [-0.98000907897949219:1.2827084064483643] [-1.5787712335586548:0.33055093884468079] [-0.74457550048828125:1.6998023986816406] [-1.0911127328872681:0.66529619693756104] [-0.23977316915988922:1.3643455505371094] [-0.98951202630996704:0.75388413667678833] [-0.3907662034034729:1.3505935668945312] [-1.1575827598571777:0.61856293678283691] [-1.059456467628479:1.1428201198577881] [-0.8561432957649231:1.1134884357452393] [-1.5773109197616577:0.32587414979934692] [-0.46772712469100952:1.5110605955123901] [-0.94067877531051636:1.1168062686920166] [-1.6140955686569214:0] [-1.8942736387252808:0.23660664260387421] [-0.59830719232559204:1.3043754100799561] [-0.71217375993728638:1.4468206167221069] [-0.26064017415046692:1.6472645998001099] [-0.94084084033966064:0.8964235782623291] [-0.88494247198104858:1.012738823890686] [-1.4518494606018066:0.5261949896812439] [-0.50489312410354614:1.4612942934036255] [-0.95977252721786499:1.0923856496810913] [-0.64909237623214722:1.1458450555801392] [-0.75377976894378662:1.3420424461364746] [-1.0153154134750366:0.81965041160583496] [-0.63146066665649414:0.8727337121963501] [-0.58724522590637207:1.5688884258270264] [-1.0421828031539917:1.0129643678665161] [-0.93803435564041138:0.62177056074142456] [-1.3329261541366577:0.64425742626190186] [-1.0011507272720337:1.0359288454055786] [-0.21540801227092743:1.5990897417068481] [-1.3443999290466309:0.44659164547920227] [-1.0311819314956665:0.62913048267364502] [-1.2964699268341064:0.51020294427871704] [-0.74134552478790283:1.2395156621932983] [-1.1419677734375:0.86829119920730591] [-1.2716015577316284:0.67980831861495972] [-1.5269134044647217:0.39603134989738464] [-0.6035805344581604:1.3290129899978638] [0:2.0422592163085938] [-0.56616336107254028:1.3810372352600098] [-0.61502677202224731:1.460806131362915] [-1.3933942317962646:0.26250815391540527] [-0.072477445006370544:1.8825670480728149] [-1.1760019063949585:0.61977666616439819] [-0.25882264971733093:1.5742130279541016] [-1.7938615083694458:0.12246419489383698] [-1.1350002288818359:0.79163938760757446] [-1.0018924474716187:0.88698381185531616] [-1.1326155662536621:0.86457133293151855] [-1.0614651441574097:1.0119534730911255] [-0.60872453451156616:1.1146574020385742] [-0.24796177446842194:1.6215012073516846] [-0.36007052659988403:1.6334464550018311] [-0.6973840594291687:1.2100523710250854] [-1.3010258674621582:0.67788618803024292] [-0.58084428310394287:1.4667984247207642] [-0.38912919163703918:1.3838086128234863] [-0.96356427669525146:0.77011346817016602] [-0.93568217754364014:0.92829197645187378] [-0.50121229887008667:1.4066623449325562] [-1.506476879119873:0.44705483317375183] [-1.0716217756271362:1.0846043825149536] [-0.69322943687438965:1.2209364175796509] [-0.323870450258255:1.5248805284500122] [-0.56796741485595703:1.2470375299453735] [-0.7377629280090332:1.256311297416687] [-0.43157520890235901:1.8221436738967896] [-0.71286618709564209:1.4790406227111816] [0:2.1092350482940674] [-1.4945690631866455:0.5840374231338501] [-0.85294872522354126:0.87442165613174438] [-0.7429962158203125:0.99367499351501465] [-1.0516879558563232:0.92482537031173706] [-1.6370675563812256:0.39784857630729675] [-0.690956711769104:1.3198239803314209] [-1.193516731262207:0.53738278150558472] [-0.76606923341751099:1.0836585760116577] [-1.8626012802124023:0.25623100996017456] [-0.76262903213500977:1.3191369771957397] [-1.665363073348999:0.45279029011726379] [-0.88469886779785156:1.5404037237167358] [-1.3098902702331543:0.52267539501190186] [-0.67634224891662598:1.113728404045105] [-1.3993127346038818:0.54252785444259644] [-1.3750839233398438:0.31024929881095886] [-2.1986942291259766:0.10409977287054062] [-1.4861173629760742:0.22024163603782654] [-0.39006620645523071:1.6918230056762695] [-0.61638569831848145:1.4139430522918701] [-1.2274134159088135:0.76820814609527588] [-1.3342781066894531:0.74814403057098389] [-0.9918212890625:0.95467621088027954] [-10.069190979003906:0] [-0.82790577411651611:1.5068358182907104] [-0.97791093587875366:0.82636123895645142] [-1.4796292781829834:0.62035781145095825] [-1.0789625644683838:0.8738703727722168] [-0.84466415643692017:1.0261871814727783] [-0.2126891165971756:1.4930058717727661] [-1.2657551765441895:0.93773818016052246] [-1.7933881282806396:0.23437370359897614] [-1.7575076818466187:0.61247777938842773] [-1.4861525297164917:0.45940348505973816] [-1.3392703533172607:0.468300461769104] [-1.1008206605911255:0.6910092830657959] [-1.4195290803909302:0.39609417319297791] [-1.7151353359222412:0.53389173746109009] [-0.79077130556106567:1.3001573085784912] [-1.0433863401412964:1.1988770961761475] [-0.40686085820198059:1.2753725051879883] [-0.1820426732301712:1.757158637046814] [-0.285562664270401:1.5762102603912354] [-1.004300594329834:0.5861697793006897] [-1.1847612857818604:0.86269283294677734] [-1.0021122694015503:0.99506372213363647] [-1.3378084897994995:0.73369079828262329] [-0.75695013999938965:1.1075315475463867] [-0.75193434953689575:1.1322152614593506] [-0.83327126502990723:1.2285648584365845] [-0.94294476509094238:0.88049352169036865] [-0.505653977394104:1.5384135246276855] [-0.77645117044448853:1.1514252424240112] [-0.39574778079986572:1.6332700252532959] [-0.7857743501663208:1.3547037839889526] [-1.97190260887146:0] [-0.91800981760025024:0.99496853351593018] [-1.0227537155151367:1.1766852140426636] [-1.6091406345367432:0.19464533030986786] [-0.75944113731384277:1.3346490859985352] [-1.1207998991012573:0.69679278135299683] [-1.285319447517395:0.6264461874961853] [-0.9534415602684021:0.91473174095153809] [-0.52247369289398193:1.2163584232330322] [-0.45550122857093811:1.3418259620666504] [-0.81937497854232788:0.96391057968139648] [-1.1710563898086548:0.86988377571105957] [-0.73362058401107788:1.2930372953414917] [-0.7221640944480896:1.0829029083251953] [-0.79584968090057373:0.89646488428115845] [-1.0846480131149292:1.1264045238494873] [0:2.4861898422241211] [-1.3954176902770996:0.73906439542770386] [-0.73049557209014893:1.4035686254501343] [-1.0035277605056763:0.81620550155639648] [-0.7074275016784668:1.2950688600540161] [-0.64320403337478638:1.1998392343521118] [-1.0307197570800781:1.0379475355148315] [-0.80689537525177002:1.2160521745681763] [0:1.9461514949798584] [-1.1511034965515137:0.72926193475723267] [-1.4239977598190308:0.75304222106933594] [-0.15079618990421295:1.4991834163665771] [-1.0251522064208984:0.72100687026977539] [-1.7073726654052734:0.5903477668762207] [-0.052625451236963272:1.9317994117736816] [-0.69314479827880859:1.0625563859939575] [-1.0589935779571533:0.85745918750762939] [-0.3248024582862854:1.3309519290924072] [-0.58589130640029907:1.18394935131073] [-0.62460112571716309:0.91911709308624268] [-1.7492926120758057:0.11381110548973083] [-1.8393124341964722:0.097924962639808655] [-2.067230224609375:0.3243674635887146] [-0.36396136879920959:1.6907132863998413] [-1.4527004957199097:0.49434220790863037] [-1.1913926601409912:0.70329326391220093] [-1.2113323211669922:0.75274235010147095]
tree_sizes=6002 6161 6143 6147 6133 6130 6111 6151 6146 6148 6167 6159 6120 6174 6192 6158 6121 6154 6094 6193 6166 6159 6150 6123 6161 6137 6162 6170 6122 6170 6121 6154 6172 6138 6218 6177 6137 6160 6209 6181 6196 6176 6162 6182 6154 6181 6185 6168 6226 6219 6138 6150 6212 6213 6169 6203 6118 6232 6200 6172 6173 6160 6120 6164 6200 6160 6186 6188 6116 6167 6197 6154 6125 6167 6181 6185 6184 6214 6167 6176 6206 6143 6133 6191 6166 6228 6186 6166 6186 6217 6167 6146 6205 6283 6222 6223 6194 6188 6189 6200 6210 6120 6122 6139 6132 6092 6158 6125 6086 6145 6166 6177 6185 6158 6136 6145 6139 6132 6218 6168 6188 6200 6216 6160 6188 6125 6207 6155 6152 6168 6189 6293 6168 6095 6237 6144 6134 6076 6200 6125 6141 6131 6229 6194 6024 6160 6109 6170 6171 6123 6159 6216 6132 6108 6149 6158 6174 6159 6086 6207 6122 6178 6224 6175 6086 6184 6166 6294 6133 6239 6026 6082 6164 6263 6060 6150 6046 6208 6121 6189 6164 6129 6082 6177 6089 5999 5974 6103 6154 6092 6024 6231 5964 6083 6139 6206 6073 6128 6242 6046 6223 6103 6143 5925 6213 6157 6175 6002 6081 6117 5990 5859 6116 5933 6135 6139 6146 6049 6134 6249 6073 6117 5924 5899 5948 6054 5979 5980 5932 5687 6047 6220 5946 6066 5936 6118 5994 5800 6055 6062 5948 6052 6044 5884 5811 5946 5983 6144 5982 6168 5970 6121 6199 6050 5920 6157 5913 5892 6133 5939 5997 6065 6089 6100 6150 6090 6156 6120 6138 6088 5904 5970 6107 6092 6079 6060 5960 6140 5788 6043 6170 5967 5884 5865 6047 6157 5783 5934 6081 5885 6036 5857 5675 5790 6211 6023 6099 5890 5944 6134 5853 5886 6133 5830 5831 5983 5860 6081 6078 5822 5760 5899 5864 5874 5900 6144 5925 5986 6056 5991 6199 5852 5921 5972 6134 5918 5930 5888 6114 6083 5973 5840 6054 5820 5974 5903 5731 5781 5917 5949 6093 5831 5844 6057 6021 6121 5828 6056 5935 6089 5874 5875 5739 5807 5983 5987 5829 6098 6038 5936 5880 6226 5921 5927 6047 6122 5815 6119 5742 5734 5758 5755 6071 5937 6006 5840 5906 5832 6127 5862 5792 5912 6097 5774 5789 5895 5837 5791 5709 5790 5792 5981 5912 5848 5890 6205 5721 5872 5899 5811 6197 5722 6076 5854 5838 5905 6000 5831 5834 5988 6126 5823 5890 5775 5830 6081 5844 5768 6045 6047 5817 6147 5735 5795 5962 5824 6110 5983 5887 6016 6236 5762 5936 5939 5896 5832 6031 5880 5773 5814 5878 6147 6228 5627 5887 5780 5909 5997 5924 5640 6017 5692 5767 6197 5790 5930 5952 5758 6089 5857 5766 5893 5984 5915 5669 5815 5903 5815 5825 5814 6174 5985 5906 6012 5669 6170 5900 6072 5820 5672 5948 5826 5833 5827 5900 5735 5842 5864 5779 5997 5836 6158 6098 6002 5810 5728 5903 5998 5880 5992 5792 5932 5789 5758 5658 5771 5921 5843 6082 6014 5769 5844 5782 5898 5813 5811 6009 5859 5866 5851 5958 5760 5819 5967 5873 6127 5699 6027 6008 6019 5918 5802 5855 6028 5663 6192 5871 5905 5834 6002 6008 5884

Tree=0
num_leaves=63
num_cat=0
split_feature=178 173 292 292 262 208 155 226 297 294 280 34 34 189 291 274 6 6 146 104 91 294 291 35 183 18 7 275 208 168 280 297 291 135 226 178 279 280 296 274 189 296 43 294 292 280 183 176 208 216 299 297 287 17 176 127 7 297 165 211 291 220
split_gain=7178.12 2910.37 2023.36 1592.01 1304.23 1216.51 1113.06 874.412 595.082 697.474 458.128 449.535 498.344 446.175 445.395 390.197 379.047 341.116 336.624 330.395 276.032 271.753 589.986 268.988 263.819 253.669 404.295 236.221 223.208 215.069 211.547 191.769 188.005 184.998 175.358 166.87 164.476 163.175 161.236 159.778 153.357 590.959 273.178 195.9 149.173 147.709 143.418 141.66 141.152 140.954 140.255 139.888 133.991 133.383 270.553 265.608 169.21 165.077 133.006 130.311 129.95 125.775
threshold=1.5059807300567629 3.8124094009399419 1.1843709349632265 0.80029839277267467 1.7841084003448489 3.6527366638183598 1.0000000180025095e-35 1.7151334285736086 2.232170939445496 -1.0086145997047422 -0.027160248719155785 -0.72019097208976735 0.57735913991928112 1.1754286885261538 -0.94667199254035939 0.21097069978713992 1.8176637887954714 1.549998462200165 2.650134921073914 -0.94511610269546498 1.8196335434913637 -1.7432309389114378 -0.84155398607254017 -0.44779372215270991 1.0147637724876406 -1.3192102909088133 -0.16015077382326123 -1.286492586135864 3.6527366638183598 -0.6817178726196288 1.2335811257362368 0.90023326873779308 -0.1024193875491619 0.24924849718809131 1.2352491021156313 0.53046640753746044 -1.2046724557876585 1.0217619538307192 -1.5793290138244627 1.0922384262084963 -2.6288480758666988 -1.9095103144645689 -1.4223806262016294 -1.3190199732780454 0.55486741662025463 0.73596996068954479 1.5208796858787539 2.0717128515243535 2.2750101089477544 -1.3316290974617002 2.140554785728455 0.86529871821403515 -1.7712090611457822 -2.6363084316253658 1.2136879563331606 1.1472672224044802 -0.21839751303195951 -0.62557232379913319 3.0354986190795903 -1.3344351649284361 2.8380975723266606 1.0829458236694338
decision_type=2 2 2 2 2 2 2 2 2 2 2 2 2 2 2 2 2 2 2 2 2 2 2 2 2 2 2 2 2 2 2 2 2 2 2 2 2 2 2 2 2 2 2 2 2 2 2 2 2 2 2 2 2 2 2 2 2 2 2 2 2 2
left_child=3 2 8 11 10 7 14 15 17 32 -4 33 23 25 -3 -5 28 58 -16 -6 48 22 31 53 36 26 -9 38 39 -15 -8 -19 -10 -1 -20 -14 -17 -7 -11 -12 41 42 -25 51 -23 -38 -27 -22 -21 -28 -18 -43 -47 54 56 -56 -13 -57 60 -32 -2 -41
right_child=1 6 4 5 19 37 30 13 9 27 16 12 35 29 18 24 50 21 34 20 47 44 -24 40 -26 46 49 -29 -30 -31 59 -33 -34 -35 -36 -37 45 -39 -40 61 -42 43 -44 -45 -46 52 -48 -49 -50 -51 -52 -53 -54 -55 55 57 -58 -59 -60 -61 -62 -63
leaf_value=-0.095388704128634816 -0.096906269202768278 -0.2338046198334254 -0.10223837289111987 -0.094504551103409676 -0.10343414618978113 -0.12107450042257914 -0.10598679916558817 -0.098348315394338415 -0.2249476811729279 -0.19178635778113484 -0.10063150553845882 -0.097624953909842993 -0.094867606018102235 -0.13342008518605963 -0.13122794322172515 -0.10129035383712524 -0.11884752198310063 -0.12246325638043533 -0.14099037786919744 -0.11790403225073783 -0.13120398910923003 -0.099642994206888061 -0.11081478446952833 -0.21440253915835333 -0.1027806779611464 -0.10334464486395656 -0.036590185389830138 -0.10461363301980707 -0.14166826830931634 -0.11259480382932524 -0.15054241241605229 -0.22757810664432016 -0.14332607427505756 -0.098420501174385153 -0.17066226966124673 -0.098213872833756682 -0.095310953296240439 -0.14910815313664452 -0.12325748277264256 -0.10291252197265538 -0.091024179447886905 -0.11654197891847114 -0.11473762903496627 -0.09115980462585295 -0.10663896899222029 -0.09274111301886899 -0.11308343154119946 -0.15465935390127328 -0.1422290969810141 -0.095046932384535252 -0.14421493990861836 -0.22912473880995959 -0.10079874024897416 -0.093690663637012575 -0.10087975513100707 -0.16575130967906682 -0.048427090219615027 -0.10741576449587564 -0.11462475150163597 -0.12189405510982568 -0.053874334293298298 -0.11246909439393279
leaf_weight=174482 55340 169 23088 72908 1786 928 2022 2837 200 142 6111 2673 190154 1750 1389 26830 7766 59 700 7229 5871 18198 1136 161 34689 17383 408 1318 491 4252 505 164 109 70706 1725 46334 58688 1178 217 4647 177177 77 120 2054 13108 6254 4831 723 650 138 586 43 29479 189224 657 390 187 176 1063 1855 176 13288
leaf_count=174482 55340 169 23088 72908 1786 928 2022 2837 200 142 6111 2673 190154 1750 1389 26830 7766 59 700 7229 5871 18198 1136 161 34689 17383 408 1318 491 4252 505 164 109 70706 1725 46334 58688 1178 217 4647 177177 77 120 2054 13108 6254 4831 723 650 138 586 43 29479 189224 657 390 187 176 1063 1855 176 13288
internal_value=-0.0969646 -0.106478 -0.105006 -0.0955013 -0.111258 -0.0989066 -0.135244 -0.0986006 -0.100057 -0.127127 -0.107637 -0.0944551 -0.0937277 -0.106397 -0.154375 -0.097524 -0.111427 -0.0994541 -0.150855 -0.123724 -0.126228 -0.103522 -0.125411 -0.0925891 -0.0989357 -0.10352 -0.0907654 -0.114407 -0.108295 -0.118667 -0.117855 -0.199767 -0.196156 -0.096263 -0.162097 -0.0955232 -0.0978357 -0.136755 -0.150364 -0.107614 -0.0911961 -0.103607 -0.171841 -0.0947876 -0.102572 -0.0968541 -0.105463 -0.133776 -0.119911 -0.051365 -0.120627 -0.156884 -0.0993885 -0.0938836 -0.102825 -0.122507 -0.0944082 -0.147612 -0.0971053 -0.128024 -0.0967698 -0.109993
internal_weight=1.289e+06 171831 163466 1.11717e+06 72236 262553 8365 260447 91230 1986 55977 854615 609427 31599 3983 228848 32889 89244 3814 16259 14473 32665 1359 372939 155940 25597 3383 1677 24537 6002 4382 223 309 245188 2425 236488 121251 2106 359 24046 179632 2455 281 2174 31306 94421 22214 6594 7879 546 8352 120 35733 193307 4083 1223 2860 566 56579 2360 55516 17935
internal_count=1288999 171831 163466 1117168 72236 262553 8365 260447 91230 1986 55977 854615 609427 31599 3983 228848 32889 89244 3814 16259 14473 32665 1359 372939 155940 25597 3383 1677 24537 6002 4382 223 309 245188 2425 236488 121251 2106 359 24046 179632 2455 281 2174 31306 94421 22214 6594 7879 546 8352 120 35733 193307 4083 1223 2860 566 56579 2360 55516 17935
is_linear=0
shrinkage=1


Tree=1
num_leaves=63
num_cat=0
split_feature=177 292 298 292 208 297 182 276 226 244 132 276 199 189 6 275 276 279 285 77 77 6 183 241 291 165 165 77 61 183 291 172 276 274 243 292 243 274 287 188 279 172 17 256 289 298 291 291 208 181 90 92 235 6 134 95 274 297 279 291 231 289
split_gain=6087.58 3220.78 2312.64 1080.64 1151.08 886.102 808.038 785.101 739.623 574.682 560.523 513.844 434.622 434.666 413.071 407.647 396.676 2553.85 865.039 398.672 366.252 342.697 330.125 312.292 264.236 248.171 246.947 241.717 236.843 220.179 218.858 217.958 212.067 852.447 395.872 222.361 211.933 202.15 181.851 177.628 170.158 169.681 164.852 158.403 156.487 151.764 149.514 146.338 145.878 143.999 140.933 138.454 132.572 130.503 122.267 121.627 121.291 120.344 117.564 117.261 115.765 113.997
threshold=1.3204137682914736 1.2570293545722964 1.7691355347633364 0.67510682344436657 3.6527366638183598 2.232170939445496 0.97357344627380382 -1.0457567572593687 1.7385036349296572 1.0865389704704287 4.2424235343933114 -1.1480853557586668 -0.37420856952667231 2.048866987228394 1.8445304036140444 -1.2991263270378111 -2.0834567546844478 1.1250599622726443 -0.77311840653419484 -0.71963024139404286 0.57742837071418773 1.7687887549400332 1.2468550801277163 -1.4358963370323179 -0.04350865259766578 2.6813310384750371 3.0354986190795903 -0.40811200439929957 -0.69005465507507313 1.0147637724876406 -0.20479893684387204 4.2123441696167001 -1.497871398925781 -1.1413786411285398 0.84269985556602489 0.53859499096870433 -1.3808939456939695 0.57602548599243175 -0.4729925245046615 -0.4916564673185348 -1.6419756412506101 3.2241923809051518 -3.6841425895690914 0.96504303812980663 3.3437094688415532 -0.054625652730464928 -2.0597823858261104 -1.1924658417701719 1.9851561188697817 1.3946248888969424 2.1992868185043339 0.47110828757286077 0.27297422289848333 0.081897869706153884 1.7204445004463198 -3.4072233438491817 0.83831006288528453 -1.2642043232917783 -1.0927816629409788 2.8380975723266606 -0.65871673822402943 2.9427520036697392
decision_type=2 2 2 2 2 2 2 2 2 2 2 2 2 2 2 2 2 2 2 2 2 2 2 2 2 2 2 2 2 2 2 2 2 2 2 2 2 2 2 2 2 2 2 2 2 2 2 2 2 2 2 2 2 2 2 2 2 2 2 2 2 2
left_child=3 5 8 16 9 10 28 24 21 29 14 30 13 39 26 23 17 -1 47 53 27 25 37 -9 -7 43 32 59 38 58 -12 40 33 34 -2 42 55 -11 -4 -8 -10 56 -34 -3 -15 -23 -16 60 -45 -48 -14 -22 -39 -18 -42 -24 -6 -31 -5 -21 -19 -27
right_child=1 2 6 4 41 7 12 15 31 22 11 -13 50 44 46 -17 19 18 -20 20 51 45 36 -25 -26 61 -28 -29 -30 57 -32 -33 35 -35 -36 -37 -38 52 -40 -41 54 -43 -44 48 -46 -47 49 -49 -50 -51 -52 -53 -54 -55 -56 -57 -58 -59 -60 -61 -62 -63
leaf_value=0.00040175271200321849 -0.019489120600598032 -0.00033636809647492709 0.0069171759774891003 -0.0012273715564630882 -0.009145583598651745 -0.12086407311533037 -0.028403868999124827 -0.088074704892556199 -0.032418067256831523 0.0011259408299923838 -0.13624772311976324 -0.014979982354926927 -0.024053082373428708 -0.052876352310561064 -0.11724591763509858 -0.0072851629444477253 0.001893129689727849 -0.13525295077706687 -0.023119253954752603 0.0033103227912891111 0.0025730237087614131 -0.0083518290427975501 -0.061035872615169962 -0.020065598787211425 -0.039336973794645846 -0.017446914047117273 -0.018432155450703241 0.0060859200180786869 -0.021964695048010165 -0.0080566871157793877 -0.049469542509862498 -0.049098409165267948 -0.02078366937852786 -0.0038348235410113106 -0.11405916899389956 -0.0026230225775328436 -0.0089082166910887575 -0.0018970712965402448 -0.017440603896677342 -0.046900005374081427 -0.011364378423318508 -0.10448224770393476 0.0026124152006409586 -0.0056799594152968196 -0.081634540503320377 -0.019851240384203269 -0.0022535184436237952 -0.070747320019200408 -0.017813471746255288 -0.010225688884141625 -0.053564687727803574 -0.00022424254981127505 -0.0077753228369668581 -0.00055630594541768196 -0.023501135079380234 -0.021785526219456106 -0.044814148265201977 -0.0013628176273975656 0.0021230971598669595 0.035688586373414315 -0.071288860025968112 -0.05224386683963942
leaf_weight=13592 190 13889 1603 33668 292 277 3600 321 2154 18813 156 601 6591 1917 31 1952 131890 448 444 212940 150796 4851 217 356 155 2105 1853 130359 5674 8551 136 679 762 6671 265 35021 10810 17140 1468 2030 4745 103 63175 25562 628 7023 8826 161 2743 15812 431 62600 21780 92528 3688 2182 1297 31262 117752 280 84 265
leaf_count=13592 190 13889 1603 33668 292 277 3600 321 2154 18813 156 601 6591 1917 31 1952 131890 448 444 212940 150796 4851 217 356 155 2105 1853 130359 5674 8551 136 679 762 6671 265 35021 10810 17140 1468 2030 4745 103 63175 25562 628 7023 8826 161 2743 15812 431 62600 21780 92528 3688 2182 1297 31262 117752 280 84 265
internal_value=-4.70962e-06 -0.0074125 -0.0146634 0.00159012 -0.00118293 -0.00254639 -0.02802 -0.0291449 -0.00994015 -0.000917631 -0.00193651 -0.0414171 -0.0349879 -0.0428246 -0.00167064 -0.0188802 0.00250922 -0.00561995 -0.077605 0.00266245 0.00337935 -0.00760526 -0.00476105 -0.0523122 -0.0916125 -0.0055941 -0.000336532 0.00438981 -0.0159111 0.000508169 -0.0958305 -0.021637 -2.045e-05 -0.00835121 -0.0745684 0.000579451 -0.0118918 -0.00312958 -0.00472633 -0.035073 -0.0198758 -0.0422909 0.00233358 -0.0047098 -0.0599727 -0.0151533 -0.00750792 -0.112514 -0.0068558 -0.00736984 -0.0258645 0.00175244 -0.0051866 0.000883222 -0.0166721 -0.0253359 -0.0382596 -0.00280052 0.00137813 0.00335284 -0.125153 -0.0213377
internal_weight=1.2882e+06 228206 91646 1.05999e+06 263867 136560 23942 3061 67704 262175 133499 893 15197 8175 132606 2629 796122 14729 1137 781393 556975 56438 70942 677 432 44564 107937 343579 8745 191233 292 11266 106084 7126 455 98958 13209 57733 3071 5630 10587 1692 63937 42194 2545 11874 24669 693 28305 24638 7022 213396 38920 224418 8433 2399 1589 39813 151420 213220 532 2370
internal_count=1288195 228206 91646 1059989 263867 136560 23942 3061 67704 262175 133499 893 15197 8175 132606 2629 796122 14729 1137 781393 556975 56438 70942 677 432 44564 107937 343579 8745 191233 292 11266 106084 7126 455 98958 13209 57733 3071 5630 10587 1692 63937 42194 2545 11874 24669 693 28305 24638 7022 213396 38920 224418 8433 2399 1589 39813 151420 213220 532 2370
is_linear=0
shrinkage=0.05


Tree=2
num_leaves=63
num_cat=0
split_feature=178 298 173 291 208 256 183 173 6 199 291 175 294 297 285 274 273 298 296 77 77 297 244 90 274 276 279 237 17 244 256 276 273 175 199 219 17 176 291 128 18 7 298 78 127 189 297 298 297 189 244 41 135 208 199 90 273 208 289 200 129 187
split_gain=5917.11 2672.31 1296.56 1107.32 1045.1 841.556 763.889 759.853 611.467 499.333 455.705 454.357 421.56 2689.86 926.295 401.045 384.83 380.871 364.999 336.685 394.137 336.219 325.446 289.766 281.813 285.556 561.615 272.047 263.112 246.073 222.53 335.037 681.147 220.777 219.453 214.561 212.605 214.643 205.143 193.517 191.901 345.832 184.593 181.497 176.361 171.865 170.812 170.735 169.073 166.248 157.094 154.699 152.586 148.754 138.637 135.147 134.659 134.606 134.256 200.631 131.379 129.803
threshold=1.4893299937248232 1.5687936544418337 3.8124094009399419 0.53030687570571911 3.6527366638183598 0.98339009284973156 1.1612967252731325 4.4985742568969735 1.6043975949287417 0.33553701639175421 -0.65943726897239674 0.15379620343446734 -2.0270202159881587 1.0969093441963198 -0.73467737436294545 0.57602548599243175 2.8208345174789433 3.073847889900208 -1.7009825706481931 -0.6849185824394225 0.52073872089385997 2.3904445171356206 1.1499677300453188 2.415735244750977 0.67795830965042125 -1.8691870570182798 0.94780266284942638 -0.9152986705303191 0.66479110717773449 1.1699764132499697 0.80007410049438488 -1.8276049494743345 -0.93768069148063649 3.5571528673172002 -0.45603771507740015 -1.0262056589126585 -2.8552333116531368 1.2136879563331606 0.95289215445518505 -1.7959880232810972 -1.5542560815811155 -0.1742565259337425 1.0153975486755373 -0.33412134647369379 0.9614713490009309 1.9046669006347658 -1.2768927812576292 0.95020970702171337 -0.72859174013137806 -2.2087392807006831 0.27085240185260778 -1.3332965970039365 0.14813486486673358 3.6527366638183598 -0.59791970252990712 -1.4058828353881834 2.4832988977432255 2.4274982213974003 3.3437094688415532 0.57347628474235546 3.2441391944885258 -0.51547783613204945
decision_type=2 2 2 2 2 2 2 2 2 2 2 2 2 2 2 2 2 2 2 2 2 2 2 2 2 2 2 2 2 2 2 2 2 2 2 2 2 2 2 2 2 2 2 2 2 2 2 2 2 2 2 2 2 2 2 2 2 2 2 2 2 2
left_child=3 7 5 12 6 -3 15 8 24 58 -9 28 13 -1 35 16 -5 38 21 -14 36 49 -17 30 25 26 -2 -28 -7 -26 31 32 -10 46 60 -15 37 -21 -13 -40 41 -24 -6 -38 -39 -42 -20 -48 -46 -8 -32 -30 -22 -31 -47 -23 -27 -41 59 -4 -12 -35
right_child=1 2 9 4 42 11 18 10 23 -11 34 17 19 14 -16 22 -18 -19 33 20 52 55 40 -25 29 56 27 -29 51 53 50 -33 -34 61 -36 -37 43 44 39 57 45 -43 -44 -45 48 54 47 -49 -50 -51 -52 -53 -54 -55 -56 -57 -58 -59 -60 -61 -62 -63
leaf_value=0.0010786989989948312 -0.00078690289741601641 -0.0043619314827112272 -0.0336587850130965 0.0022663327051254973 -0.019189820147736014 -0.0018231264521875014 -0.030590619422758189 -0.12199112096355416 -0.12309917118268793 -0.027338555609256545 -0.031401253146374875 -0.011805229054266146 0.0010519813627671148 -0.12229572268744203 -0.016506134804535832 0.00016516336481028687 0.03589163048681477 -0.042495594755235795 -0.0090779530778149972 0.00093334765198187372 0.0025912268862080244 -0.097517001518810348 -1.2497833200321254e-05 -0.034663255567348672 -0.0029404418884512546 0.0011989457334160699 -0.13148064776291174 -0.038868796006969984 -0.066448834639465534 -0.010367512493922704 -0.00846763289953106 -0.0038093734073377569 -0.013002587583085432 -0.11256594178100517 -0.012160773275689986 -0.067496567468151622 0.0035912006835307482 -0.0056512568662167931 -0.045489697246780397 -0.021960328344370981 -0.0050992167384243253 0.047232302514136425 -0.048064970166430909 0.0061338311953254756 -0.064164230685698306 -0.037134043599689137 -0.00060214853099588414 -0.0069491556347009154 -0.0098226483074350945 -0.010209385804611698 -0.016744742592877452 -0.019998775334758759 -0.00022871603942585547 -0.046941483392821337 -0.011375590710650434 -0.024727177178952842 0.04418880127146433 -0.041341863895839243 -0.086882249180658955 -0.068629042803171961 -0.069937447092684193 -0.030199994899175648
leaf_weight=11417 731 9742 633 119463 1003 3881 1281 142 177 1848 571 3644 257020 591 443 98105 857 2713 13785 2531 141507 176 2605 1115 37598 39509 143 178 207 11339 12595 20066 681 56 948 256 176680 613 1077 11864 37195 455 1235 116440 379 711 31269 16026 230 4570 10521 1337 72572 285 1969 100 183 969 449 1165 361 328
leaf_count=11417 731 9742 633 119463 1003 3881 1281 142 177 1848 571 3644 257020 591 443 98105 857 2713 13785 2531 141507 176 2605 1115 37598 39509 143 178 207 11339 12595 20066 681 56 948 256 176680 613 1077 11864 37195 455 1235 116440 379 711 31269 16026 230 4570 10521 1337 72572 285 1969 100 183 969 449 1165 361 328
internal_value=2.67805e-07 -0.00849973 -0.0199538 0.00135089 -0.0010717 -0.0168754 -0.000840023 -0.00519831 -0.00474303 -0.0465911 -0.0356225 -0.0216203 0.00237863 -0.00665402 -0.0750916 0.000385282 0.00250583 -0.0250604 -0.00557802 0.00252808 0.00327059 -0.0172155 -0.00142374 -0.00949071 -0.00236012 0.00071569 -0.0249958 -0.0801258 -0.00876845 -0.00490615 -0.00885339 -0.00511767 -0.0357148 -0.00441795 -0.0290989 -0.105733 0.00444984 -0.00737527 -0.0223657 -0.0251323 -0.00505434 0.00701246 -0.0351241 0.00460124 -0.024584 -0.00598034 -0.00418034 -0.00275284 -0.0436411 -0.0146716 -0.0122349 -0.0262262 0.00163528 -0.0112642 -0.0182093 -0.0711439 0.00139715 -0.0234238 -0.062425 -0.0563175 -0.0463278 -0.0422117
internal_weight=1.28854e+06 176672 39529 1.11187e+06 331189 35434 328951 137143 135121 4095 2022 25692 780679 12707 1290 261360 120320 20267 67591 767972 510952 6127 141040 45155 89966 40744 1052 321 5425 49222 44040 20924 858 61464 1880 847 296873 3753 17554 13910 42935 3060 2238 293120 1222 39875 61080 47295 609 5851 23116 1544 214079 11624 2680 276 39692 12833 2247 1798 932 384
internal_count=1288540 176672 39529 1111868 331189 35434 328951 137143 135121 4095 2022 25692 780679 12707 1290 261360 120320 20267 67591 767972 510952 6127 141040 45155 89966 40744 1052 321 5425 49222 44040 20924 858 61464 1880 847 296873 3753 17554 13910 42935 3060 2238 293120 1222 39875 61080 47295 609 5851 23116 1544 214079 11624 2680 276 39692 12833 2247 1798 932 384
is_linear=0
shrinkage=0.05


Tree=3
num_leaves=63
num_cat=0
split_feature=178 298 292 173 292 292 173 261 294 297 226 226 273 198 174 298 6 199 276 261 273 298 244 163 163 255 156 189 6 86 164 189 133 127 252 191 11 278 220 298 133 183 244 297 264 131 220 199 253 291 18 50 176 215 156 6 129 297 297 294 139 292
split_gain=5393.23 2642.02 1282.64 866.078 793.102 757.272 747.33 654.129 573.246 1463.86 507.515 485.052 445.736 417.742 401.092 384.821 371.86 369.622 343.058 2039.74 1420.38 368.076 304.484 288.519 361.246 282.008 264.82 257.245 233.13 211.439 228.713 196.908 195.033 183.419 254.313 229.07 183.278 180.81 179.083 170.91 169.085 165.996 160.6 158.592 194.461 177.241 149.596 147.414 194.623 145.73 138.249 339.043 287.531 136.813 136.072 134.114 129.693 129.555 129.228 391.6 124.22 122.218
threshold=1.2868364453315737 1.6958082914352419 1.0014747977256777 4.4985742568969735 0.52125889062881481 0.91254967451095592 3.8124094009399419 -1.1687707304954527 -1.8684020638465879 1.0662282705307009 1.9061315059661867 1.7151334285736086 -0.50587952136993397 1.0000000180025095e-35 -1.0243994593620298 3.073847889900208 1.7687887549400332 0.33553701639175421 -1.6420796513557432 1.2557798027992251 -0.89260774850845326 -0.85183212161064137 0.88658460974693309 -0.71375936269760121 0.57735607028007518 -0.50115719437599171 -0.37511259317398066 3.0617154836654668 0.81443747878074657 -2.8354038000106807 -0.44423665106296534 1.1508548855781557 1.3126001954078677 1.1104336380958559 -2.8030672073364253 1.0000000180025095e-35 0.40212680399417883 -1.6216999292373655 0.89642250537872326 -0.18837750703096387 0.78059417009353649 1.2468550801277163 -0.8002546727657317 2.232170939445496 1.1216530203819277 -1.7061282396316526 -1.0519251227378843 -0.37420856952667231 2.5132757425308232 2.8380975723266606 -1.4315409064292905 -0.10173627734184264 -1.2108141183853147 -4.1860985755920401 0.5004154145717622 0.016331013292074207 3.2441391944885258 1.2021725177764895 1.9155296087265017 -1.1981731057167051 0.54046684503555309 -2.3906574249267574
decision_type=2 2 2 2 2 2 2 2 2 2 2 2 2 2 2 2 2 2 2 2 2 2 2 2 2 2 2 2 2 2 2 2 2 2 2 2 2 2 2 2 2 2 2 2 2 2 2 2 2 2 2 2 2 2 2 2 2 2 2 2 2 2
left_child=4 3 43 5 18 8 14 11 9 -2 16 -6 -11 25 37 26 38 -8 19 53 21 46 57 55 29 -5 32 41 49 33 -31 -13 -16 34 42 -35 -33 -4 -7 -18 -37 50 -25 45 -45 -3 -21 48 -40 -10 51 -24 -53 -1 -19 -20 -27 -9 -30 -60 -12 -55
right_child=1 2 6 13 7 10 17 22 28 12 60 31 -14 -15 15 -17 39 54 23 20 -22 -23 27 24 -26 56 -28 -29 58 30 -32 36 -34 35 -36 40 -38 -39 47 -41 -42 -43 -44 44 -46 -47 -48 -49 -50 -51 -52 52 -54 61 -56 -57 -58 -59 59 -61 -62 -63
leaf_value=-0.036594784274348056 -0.00077712933142597097 0.009815208445156591 -0.026801046118173501 -0.12709396319382865 -0.0036110217005976999 -0.0007915816554038426 -0.058725734183129701 0.0023348306837010992 0.0019991652991771173 -0.1099607813906059 -0.010407729163949532 -0.01226666200313687 -0.03555000261334245 -0.011576219217026609 -0.023140541044270765 -0.039670745698037142 -0.0063246747161522163 -0.044647226773376618 0.0021047773343140746 -0.11995934044416304 -0.011128880912435675 -0.0080670089199545558 0.0010300429942174732 -0.13414269638061524 0.0015102799224788993 -0.033029889838164031 -0.014496479925317699 -0.036280276338853272 -0.0022393723037727278 0.0031264211617325725 0.0058156992317957533 -0.016040570776719481 -0.0415058237855047 -0.0071647518128937805 0.004195749755562396 -0.060513194543499571 -0.045894727079070614 -0.00037426290812413447 -0.0076524065599721594 -0.016383318904879315 0.0023672021023428613 -0.0071469788835114212 -0.026220738198943772 -0.0062675673049364319 -0.053605664619935961 -0.0061391032216613177 -0.067564325196119407 -0.0033283863578543755 -0.023382039811917235 0.045204033389478468 -0.0017495581511980673 0.05605391789669039 0.0033902692128811233 -0.04645512857929851 -0.0157365703429415 -0.00046208532900106434 -0.066402354329987687 -0.0010888977899540151 -0.08280608895258644 -0.0077389506132129115 -0.022462676440080459 0.00086502340241831474
leaf_weight=248 2131 2142 823 115 48523 23444 2094 132890 46354 485 3256 6141 344 1182 8093 3153 6938 679 123028 641 986 102 5573 50 189594 793 8827 552 48728 159863 156417 1090 1760 2310 4593 392 973 3031 16004 10792 147 12879 111 553 357 9294 173 19448 2242 196 51123 569 476 137 1016 86782 460 34884 195 1593 6218 34188
leaf_count=248 2131 2142 823 115 48523 23444 2094 132890 46354 485 3256 6141 344 1182 8093 3153 6938 679 123028 641 986 102 5573 50 189594 793 8827 552 48728 159863 156417 1090 1760 2310 4593 392 973 3031 16004 10792 147 12879 111 553 357 9294 173 19448 2242 196 51123 569 476 137 1016 86782 460 34884 195 1593 6218 34188
internal_value=-7.56092e-06 -0.00689706 -0.0182792 -0.00440372 0.00151168 -0.00401189 -0.0239461 -0.000685429 -0.00103256 -0.0227082 -0.00738527 -0.00551214 -0.0790834 -0.0333477 -0.0208884 -0.0235134 -0.00607178 -0.0446755 0.00236672 -0.00236449 -0.0527752 -0.0976041 0.000460456 0.00260531 0.00324366 -0.0521591 -0.0207862 -0.00227992 -0.000371563 0.00425834 0.00445641 -0.0167564 -0.0264211 -0.00398137 0.00203059 -0.0140133 -0.0301211 -0.00601755 -0.0042229 -0.0124472 -0.043364 -0.00201416 -0.0597369 -0.00474938 -0.0248387 -0.00315081 -0.108824 -0.00635704 -0.0095852 0.00218108 -0.000869292 0.00593063 0.0320655 0.000408803 -0.0273179 0.00104307 -0.0452816 0.00162296 -0.0027238 -0.0159258 -0.0183197 0.000676156
internal_weight=1.28818e+06 232740 41822 190918 1.05544e+06 188368 29476 295673 100026 2960 88342 56727 829 2550 25687 21833 78868 3789 759762 36475 1902 916 238946 723287 513477 1368 18680 71172 97066 323883 316280 8204 9853 7603 4754 2849 2063 3854 61138 17730 539 70620 161 12346 910 11436 814 37694 18246 46550 57741 6618 1045 34573 1695 209810 1253 167774 50516 1788 9474 34325
internal_count=1288175 232740 41822 190918 1055435 188368 29476 295673 100026 2960 88342 56727 829 2550 25687 21833 78868 3789 759762 36475 1902 916 238946 723287 513477 1368 18680 71172 97066 323883 316280 8204 9853 7603 4754 2849 2063 3854 61138 17730 539 70620 161 12346 910 11436 814 37694 18246 46550 57741 6618 1045 34573 1695 209810 1253 167774 50516 1788 9474 34325
is_linear=0
shrinkage=0.05


Tree=4
num_leaves=63
num_cat=0
split_feature=178 298 292 173 279 292 294 279 273 182 156 243 240 273 226 146 296 226 276 291 255 129 133 289 281 128 6 292 294 17 191 41 34 199 240 292 34 298 85 175 61 237 17 51 128 179 179 257 294 41 128 208 293 291 298 230 264 255 6 293 185 255
split_gain=4813.66 2416.39 1392.92 836.491 713.696 702.283 604.192 1539.46 597.146 585.046 524.428 518.99 1502.4 1304.78 496.542 489.431 933.34 450.3 408.41 620.728 401.569 339.551 335.298 328.325 673.987 425.362 319.778 303.575 302.357 274.822 359.249 261.005 260.224 251.734 246.839 281.019 240.888 238.767 258.229 443.262 224.133 216.336 213.658 212.598 208.237 363.379 204.015 198.922 224.572 194.864 193.622 190.6 189.036 188.328 186.66 178.562 178.395 173.076 169.99 162.834 162.668 159.664
threshold=1.1835139989852907 1.7186644077301028 1.3408278822898867 4.4985742568969735 -1.0779954195022581 0.78282439708709728 -1.7432309389114378 0.96543458104133617 -0.63789796829223622 0.97357344627380382 1.0000000180025095e-35 1.1627140045166018 -1.832355737686157 -1.0592299103736875 1.671796500682831 -2.0341647863388057 -1.9095103144645689 1.349868953227997 2.0034211874008183 -0.94667199254035939 -0.50115719437599171 -1.8959991931915281 1.2502551078796389 -1.8413811326026914 1.4255349636077883 1.199756979942322 2.0384733676910405 0.64031690359115612 -0.44382794201374048 -3.1575222015380855 1.0000000180025095e-35 -0.66779795289039601 -0.72019097208976735 -0.45603771507740015 -0.73139700293540943 -1.3343927860260008 0.57735913991928112 0.92861077189445507 1.6337295770645144 -2.2639889717102046 -0.67528840899467457 -0.7817481756210326 1.1415422558784487 -1.275487959384918 1.7968130111694338 -0.059272117912769311 -0.84727576375007618 0.99593117833137523 -0.23475548624992368 -0.95386135578155506 -0.42411647737026209 2.9444923400878911 -0.87398862838745106 2.8380975723266606 0.2695291936397553 -0.12314451858401297 -0.087051779031753526 0.46477015316486364 0.40964305400848394 -1.7287357449531553 -0.016031570732593533 0.70505443215370189
decision_type=2 2 2 2 2 2 2 2 2 2 2 2 2 2 2 2 2 2 2 2 2 2 2 2 2 2 2 2 2 2 2 2 2 2 2 2 2 2 2 2 2 2 2 2 2 2 2 2 2 2 2 2 2 2 2 2 2 2 2 2 2 2
left_child=4 3 40 5 17 6 7 -2 52 -4 22 23 13 41 26 16 21 18 29 -20 -5 -14 -11 24 44 47 54 -19 31 30 -1 -27 -25 -22 35 -18 -34 -17 57 46 -3 -13 51 -44 -6 -46 -40 -26 49 55 -31 -29 -9 58 -7 -49 -36 -39 -8 -58 -47 -42
right_child=1 2 9 20 11 14 53 8 -10 10 -12 12 15 -15 -16 37 34 27 19 -21 33 -23 -24 32 25 28 -28 42 -30 50 -32 -33 36 -35 56 -37 -38 38 39 -41 61 -43 43 -45 45 60 -48 48 -50 -51 -52 -53 -54 -55 -56 -57 59 -59 -60 -61 -62 -63
leaf_value=-0.0063848543323906208 -0.00039964564640682093 0.0025248418333289136 -0.014184821800664896 -0.10764812396543964 0.0036761651115158607 -0.0016665608247160583 0.0024176433745864557 0.0068193516165420817 -0.02926629517298554 -0.031260537513216877 -0.020409936660566015 -0.10921905884168014 -0.10976782512028099 -0.012524578827884512 -0.014524199158527382 0.0024008565460872291 -0.13193166174857718 -0.0020347611921044196 0.082447618288298455 0.0036962608815612956 -0.042520878301666787 -0.019899703595182228 -0.051741191286103695 0.00065507488773367331 0.0054130572155489717 0.081766248236186667 -0.012263176452812795 -0.0074644831876088703 0.013898643561864302 -0.0026175845306859098 -0.065233631805656042 0.025829935533011352 0.0039866113751244039 -0.010649708504053576 0.004240481005882285 -0.020546323829457733 0.0015074835774438527 0.00027790326551222833 0.0048174958016049159 0.0027045727857600713 -0.002682036350142661 -0.042545104077925874 -0.039367824601742318 -0.012895661211831003 0.0084172874798021432 0.0054343320151719341 0.059729068162387815 0.071755833414893291 0.0082725816817077243 0.021572844437340963 0.0011676435866940474 -0.042913869754863845 -0.10977037457596453 0.038908394932495344 -0.0066513570917041539 0.022175110233518737 -0.046875568703630022 -0.004969806643872564 -0.0017498198757293145 -0.0094796399293977651 0.076942683305431539 -0.013909643933340102
leaf_weight=884 2870 5028 8817 164 82592 44430 41159 37 504 5667 7413 594 318 1290 16130 95762 82 18578 375 752 1261 157 3087 164467 4040 558 12960 12544 557 51137 367 333 248495 1218 2675 183 161774 31851 240 3660 4980 153 1221 2002 1471 104 573 451 2055 1818 99557 391 576 311 32530 304 315 31009 60344 3836 338 8695
